{"W_hidden_cores": [[[[[1.0129696130752563], [-0.00959203951060772]], [[-0.009491709992289543], [1.0233253240585327]]]], [[[[0.9822828769683838], [-0.013863292522728443]], [[0.0030096357222646475], [1.0035511255264282]]]], [[[[1.0033259391784668], [0.021549224853515625]], [[-0.017696760594844818], [0.9950372576713562]]]], [[[[1.0078763961791992], [0.01759440265595913]], [[0.006021399516612291], [0.971920907497406]]]], [[[[1.0035988092422485], [0.025052303448319435]], [[0.029890846461057663], [1.0281835794448853]]]], [[[[0.9788665175437927], [0.022559909150004387]], [[-0.03619709983468056], [0.9889434576034546]]]], [[[[1.1305090188980103], [-0.024031750857830048]], [[0.4829114079475403], [1.1402418613433838]]]], [[[[0.9824041128158569], [0.014755777083337307]], [[-0.009710319340229034], [1.0220662355422974]]]], [[[[1.0176063776016235], [-0.00863339938223362]], [[-0.0019578104838728905], [0.9556264877319336]]]], [[[[1.0481433868408203], [-0.012632498517632484]], [[0.03602830320596695], [1.0376321077346802]]]], [[[[0.9756994247436523], [-0.022923070937395096]], [[-0.024077603593468666], [1.0385903120040894]]]], [[[[1.001243233680725], [0.02387838624417782]], [[0.00043409381760284305], [0.9912065267562866]]]]], "W_input_cores": [[[[[0.9905281662940979], [0.0001663340226514265]], [[0.003550149267539382], [0.9860429167747498]]]], [[[[0.9904747605323792], [0.022942407056689262]], [[-0.01761276088654995], [0.9848710894584656]]]], [[[[1.0233923196792603], [-0.010342557914555073]], [[-0.00656108558177948], [0.9896429181098938]]]], [[[[1.0047162771224976], [0.002342886757105589]], [[0.03699754551053047], [0.9965893626213074]]]], [[[[1.0347083806991577], [-0.025795238092541695]], [[0.007756141480058432], [0.9977242350578308]]]], [[[[1.0111017227172852], [0.015218853019177914]], [[-0.018566468730568886], [0.9659025073051453]]]], [[[[1.8371381759643555], [0.9112904667854309]], [[0.8998629450798035], [1.6883941888809204]]]], [[[[1.026349425315857], [-0.02008039876818657]], [[0.0004922744701616466], [0.995426595211029]]]], [[[[0.9856116771697998], [-0.0003948332741856575]], [[0.018301336094737053], [1.0202734470367432]]]], [[[[1.0045166015625], [-0.010141531005501747]], [[-0.021520519629120827], [1.0383704900741577]]]], [[[[0.9929977059364319], [0.0368582084774971]], [[0.006656429264694452], [0.9857335686683655]]]], [[[[0.9877755641937256], [-0.010945014655590057]], [[0.021571779623627663], [0.9667919278144836]]]]], "head_weight": [[-0.015690729022026062, -0.11090416461229324, -0.08040361851453781, -0.007413011975586414, -0.09817392379045486, 0.0032832217402756214, -0.049712032079696655, 0.05377017334103584, -0.1481533795595169, 0.05462349206209183, -0.0651177391409874, -0.03997054323554039, 0.01074641477316618, -0.0862409919500351, -0.09207204729318619, -0.11036659777164459, -0.02898557111620903, -0.08106290549039841, 0.0095650190487504, 0.012285330332815647, -0.14274519681930542, -0.10618912428617477, -0.13533475995063782, 0.010921391658484936, -0.03340757638216019, -0.1397750973701477, 0.06408774107694626, -0.013637875206768513, 0.0636867955327034, 0.09363465756177902, 0.07616794109344482, 0.062028300017118454, -0.026346638798713684, 0.005453858524560928, 0.021058008074760437, 0.018943041563034058, -0.04049283266067505, -0.04224923253059387, -0.045193254947662354, -0.0027263928204774857, 0.07135550677776337, -0.054930850863456726, 0.009535826742649078, -0.0002798589412122965, -0.10998889803886414, -0.010748021304607391, -0.014362461864948273, 0.06634850800037384, -0.051227763295173645, -0.05826282501220703, -0.09835414588451385, 0.07887904345989227, -0.02674447000026703, -0.09079140424728394, 0.09613518416881561, -0.08902738988399506, 0.08816857635974884, -0.12286320328712463, 5.7661934988573194e-05, -0.023033633828163147, 0.09527331590652466, -0.07036265730857849, 0.08751693367958069, 0.08523696660995483], [0.019525660201907158, 0.3006512224674225, 0.2510145306587219, 0.18856380879878998, 0.24747233092784882, 0.17369578778743744, 0.197315514087677, 0.12320780009031296, 0.16277015209197998, 0.2123444527387619, 0.13473817706108093, 0.18836763501167297, 0.06577745079994202, -0.010617529973387718, -0.038851745426654816, -0.09690508991479874, -0.07464174926280975, 0.0880609005689621, -0.12467210739850998, 0.07240288704633713, -0.1275285929441452, -0.10448681563138962, 0.004823779221624136, -0.16553190350532532, -0.11868642270565033, 0.005837781820446253, -0.13197848200798035, -0.10057151317596436, 0.05872178450226784, 0.053394462913274765, 0.05009365454316139, -0.10360155254602432, -0.03254863619804382, -0.04921400547027588, 0.06900782883167267, 0.019308418035507202, 0.06944552063941956, -0.027008086442947388, 0.06032364070415497, 0.12386739253997803, 0.10215979814529419, 0.06612929701805115, -0.12015600502490997, -0.004837352782487869, -0.05999906361103058, 0.000297412509098649, -0.08417806029319763, 0.09676030278205872, 0.1204041838645935, 0.08273379504680634, -0.03382454812526703, -0.0559854656457901, -0.008041448891162872, 0.07507455348968506, 0.11833544075489044, -0.04610653221607208, -0.11207674443721771, 0.08338116109371185, -0.10512608289718628, -0.09130795300006866, -0.11243000626564026, 0.031383633613586426, 0.04405878484249115, 0.06550155580043793], [0.050569355487823486, -0.16627472639083862, -0.2600422203540802, -0.26197728514671326, -0.06939231604337692, -0.078343465924263, -0.18659979104995728, -0.18110275268554688, -0.2264031618833542, -0.14034892618656158, -0.04417987912893295, -0.08440189808607101, -0.18222831189632416, -0.11042211949825287, 0.026172081008553505, -0.10003594309091568, -0.06204405426979065, -0.11638069152832031, -0.1117626503109932, -0.02175476960837841, -0.03792442008852959, 0.06475456804037094, -0.015801049768924713, 0.10817436128854752, -0.05035896971821785, 0.03405340760946274, 0.02771671675145626, 0.06975765526294708, -0.11597555875778198, -0.11837388575077057, -0.026853369548916817, -0.10340063273906708, 0.10933615267276764, 0.08973515033721924, -0.040612950921058655, -0.046951502561569214, -0.040272071957588196, -0.0490608811378479, -0.017072975635528564, 0.031226754188537598, 0.07039155066013336, 0.10321223735809326, 0.08442127704620361, -0.05557712912559509, 0.06760740280151367, 0.0006723706610500813, -0.032272279262542725, -0.052292197942733765, -0.07810911536216736, 0.10418012738227844, 0.002864079549908638, -0.05816306173801422, 0.1010480523109436, 0.12390129268169403, -0.07669898867607117, -0.0170212984085083, 0.07660968601703644, 0.07710622251033783, -0.12167297303676605, 0.041004568338394165, 0.10884076356887817, 0.055190712213516235, -0.08796662092208862, 0.11550849676132202], [0.04747411608695984, -0.7387257814407349, -0.6595243811607361, -0.6362155079841614, -0.6597300171852112, -0.5036737322807312, -0.5938363671302795, -0.4137115478515625, -0.5353187918663025, -0.5362134575843811, -0.32168522477149963, -0.34223002195358276, -0.19968390464782715, -0.25349369645118713, -0.19680462777614594, -0.13841672241687775, -0.060478728264570236, -0.14479191601276398, -0.19013966619968414, -0.018889063969254494, 0.03154395893216133, -0.1711113005876541, -0.050688132643699646, -0.16629987955093384, -0.060736026614904404, 0.05217087268829346, -0.1942940056324005, -0.06007891520857811, 0.040699977427721024, -0.1060154065489769, -0.0002707855310291052, 0.05039102956652641, -0.10375641286373138, -0.07309119403362274, -0.11534833908081055, 0.02662910521030426, -0.002110632136464119, -0.05399326980113983, 0.04120257496833801, 0.10007455945014954, -0.11820496618747711, -0.0928225964307785, 0.06397314369678497, -0.10506826639175415, 0.12461160123348236, -0.0693308413028717, 0.05241510272026062, 0.0677386224269867, -0.0002915861550718546, 0.11336791515350342, -0.05852755904197693, 0.08701340854167938, -0.11062803864479065, 0.07113000750541687, -0.06347548961639404, -0.035080865025520325, 0.00374712236225605, 0.05616118013858795, -0.08963659405708313, 0.08839483559131622, -0.06543521583080292, 0.019458144903182983, 0.064722940325737, 0.06877945363521576], [0.012630446814000607, -0.9033193588256836, -0.8748354911804199, -0.6092813611030579, -0.549147367477417, -0.6651908755302429, -0.5166162848472595, -0.40806737542152405, -0.5021584033966064, -0.45576220750808716, -0.41545698046684265, -0.35796263813972473, -0.30859455466270447, -0.15191534161567688, -0.29099395871162415, -0.03779983893036842, -0.10365907102823257, -0.026829339563846588, -0.14495718479156494, -0.16196586191654205, -0.0594247505068779, -0.19163531064987183, -0.0041735609993338585, -0.16464051604270935, -0.18414495885372162, -0.08085908740758896, -0.02323267050087452, -0.09436267614364624, -0.19268429279327393, -0.17654134333133698, -0.17754040658473969, -0.02440706640481949, 0.06867586076259613, 0.047333329916000366, -0.06560255587100983, -0.055675119161605835, 0.09012888371944427, 0.04618696868419647, 0.12078012526035309, -0.10591602325439453, 0.10633651912212372, -0.08506041765213013, -0.11171945929527283, -0.011590458452701569, 0.0961078554391861, 0.05049373209476471, 0.01021508127450943, 0.12171630561351776, 0.07280635833740234, 0.07630844414234161, 0.03593643009662628, 0.08367359638214111, 0.026436209678649902, 0.12458537518978119, 0.08950863778591156, -0.07933899760246277, 0.07881581783294678, -0.0256577730178833, 0.12219908833503723, -0.06581801176071167, 0.016322389245033264, 0.027985334396362305, -0.05051960051059723, 0.05877812206745148], [-0.01539443526417017, -0.5798113346099854, -0.47360605001449585, -0.6228150129318237, -0.42412030696868896, -0.6199479699134827, -0.41478708386421204, -0.33075839281082153, -0.46744421124458313, -0.42308828234672546, -0.3386850655078888, -0.23205552995204926, -0.23599189519882202, -0.33331751823425293, -0.1253526359796524, -0.1447378396987915, -0.03332257643342018, -0.010103549808263779, -0.2035248875617981, -0.17460758984088898, -0.19359198212623596, -0.12183511257171631, -0.002504135947674513, -0.14200489223003387, -0.008525271899998188, -0.007285625673830509, -0.05695183947682381, -0.14806577563285828, 0.04001682996749878, -0.03689701482653618, -0.08592858910560608, -0.024392111226916313, 0.11453545093536377, -0.1225498616695404, 0.0993807464838028, -0.07703211903572083, -0.04006928205490112, -0.05654972791671753, 0.07393859326839447, 0.05032235383987427, -0.06885379552841187, -0.014882482588291168, -0.004360560327768326, -0.1110064685344696, -0.0705992728471756, 0.1167389303445816, 0.04314413666725159, -0.0037835408002138138, 0.07997402548789978, -0.062183186411857605, 0.04528720676898956, -0.05320394039154053, 0.07432210445404053, -0.1042727380990982, 0.07391130924224854, 0.008117474615573883, 0.08887436985969543, 0.07369180023670197, -0.01659253239631653, -0.06556946039199829, 0.07833746075630188, 0.06201796233654022, 0.02446162700653076, 0.10742239654064178], [0.0524369478225708, -0.24762915074825287, -0.10310817509889603, -0.20320264995098114, -0.09577382355928421, -0.06680238246917725, -0.1282636672258377, 0.02289721369743347, -0.03171035274863243, -0.006310747936367989, -0.04981086775660515, -0.13825388252735138, -0.16634467244148254, -0.08226165175437927, -0.14978404343128204, 0.07743199914693832, 0.0800810232758522, 0.06250185519456863, 0.09748837351799011, -0.02765672467648983, -0.12916533648967743, 0.0036493337247520685, -0.12375512719154358, 0.0959765836596489, 0.08849542587995529, -0.1111859530210495, 0.11268575489521027, 0.06679826974868774, -0.03680339828133583, -0.12048926949501038, -0.1528623253107071, 0.0466756746172905, -0.052831485867500305, 0.0662958174943924, 0.010731391608715057, -0.11857587099075317, -0.04569081962108612, 0.08779826760292053, 0.03528781235218048, 0.022799283266067505, -0.03214079141616821, -0.10338015854358673, 0.006074059754610062, -0.0871858298778534, 0.07882668077945709, -0.11219502985477448, 0.08922818303108215, -0.08197954297065735, -0.11259105801582336, -0.07906121015548706, 0.02809499204158783, 0.11397910118103027, 0.07147292792797089, -0.009123645722866058, -0.04231773316860199, 0.08815266191959381, 0.026737049221992493, 0.08931969106197357, -0.020033448934555054, -0.04902330040931702, -0.016363069415092468, -0.10802796483039856, -0.020313769578933716, -0.11427608132362366], [0.05932673066854477, -0.4762665331363678, -0.46958282589912415, -0.3303593099117279, -0.249307319521904, -0.21309052407741547, -0.412783682346344, -0.3893181383609772, -0.23285099864006042, -0.27536508440971375, -0.04639589041471481, -0.165330171585083, -0.23784911632537842, -0.020985117182135582, -0.06885277479887009, -0.0701201856136322, -0.1581154614686966, -0.05788233131170273, -0.10236096382141113, -0.04847012087702751, -0.004237090237438679, -0.0497465506196022, 0.04873180761933327, -0.02065427601337433, -0.03697485849261284, 0.09819784760475159, 0.0798315480351448, 0.06951812654733658, -0.014331420883536339, 0.013848202303051949, -0.1435823291540146, -0.05805707722902298, 0.038537174463272095, -0.0672292411327362, -0.08567862212657928, 0.0662723034620285, -0.028528302907943726, -0.042151451110839844, -0.006104473024606705, -0.0657990574836731, -0.09653434157371521, 0.06925013661384583, 0.05733990669250488, -0.06417563557624817, -0.09845688939094543, 0.04565238952636719, 0.12311676144599915, 0.07190442085266113, 0.010556764900684357, 0.011146850883960724, 0.025184139609336853, -0.006853673607110977, -0.022301092743873596, -0.037519752979278564, 0.07742060720920563, 0.009901650249958038, -0.00317530520260334, 0.08755458891391754, 0.033095091581344604, 0.03165939450263977, -0.11813214421272278, -0.006750602275133133, -0.03268902003765106, -0.0927828848361969], [0.1052556037902832, -0.27534186840057373, -0.4385548233985901, -0.29874131083488464, -0.1745336502790451, -0.2925970256328583, -0.18501734733581543, -0.2896408140659332, -0.1590692102909088, -0.20925764739513397, -0.24459579586982727, -0.20137347280979156, -0.20699505507946014, -0.05496826767921448, -0.05302155017852783, -0.12714783847332, 0.041485559195280075, 0.05171455070376396, -0.15642091631889343, -0.11689776182174683, -0.10717437416315079, -0.12560191750526428, -0.028463495895266533, 0.06469569355249405, 0.029497819021344185, 0.01841873489320278, 0.023393645882606506, -0.13302356004714966, -0.1202123612165451, -0.035478245466947556, 0.013410227373242378, -0.03305056318640709, -0.042403340339660645, -0.07114000618457794, 0.10500390827655792, 0.12103207409381866, -0.0034635979682207108, -0.08705706894397736, 0.10943526029586792, -0.07005366683006287, -0.054521068930625916, -0.0984557569026947, 0.11502592265605927, 0.020054474472999573, -0.08444783091545105, 0.09185481071472168, 0.10425733029842377, -0.07042288780212402, -0.07700537145137787, 0.03136001527309418, -0.12198135256767273, -0.09738732874393463, -0.10478387773036957, 0.05399981141090393, 0.03434443473815918, -0.09664925932884216, -0.08537083864212036, -0.07164336740970612, 0.050070613622665405, 0.021441996097564697, 0.02568879723548889, -0.094215527176857, 0.0060296691954135895, 0.09354403614997864], [0.07331816107034683, -0.8768038749694824, -0.8843979239463806, -0.8027163743972778, -0.7127407789230347, -0.6112805008888245, -0.4687078893184662, -0.45561280846595764, -0.3849200904369354, -0.3459687829017639, -0.31392666697502136, -0.2474975287914276, -0.31893375515937805, -0.3591006398200989, -0.20525336265563965, -0.10206568986177444, -0.13133762776851654, -0.11106698215007782, -0.15934635698795319, -0.23302698135375977, -0.21088500320911407, 0.005252310074865818, -0.021327795460820198, 0.02064821682870388, -0.02520597167313099, -0.0013947233092039824, -0.19756652414798737, -0.13073189556598663, -0.09074371308088303, -0.039251554757356644, -0.016899775713682175, -0.1267908215522766, -0.11537811160087585, -0.03893044590950012, -0.09778949618339539, 0.06650763750076294, 0.03302280604839325, 0.0943734347820282, -0.08371704816818237, -0.07569445669651031, 0.07389341294765472, 0.06605775654315948, -0.09294076263904572, -0.015764638781547546, 0.02412816882133484, -0.057692572474479675, -0.02337808907032013, 0.0763346403837204, -0.03507734835147858, 0.012022189795970917, -0.09974078834056854, 0.11800457537174225, -0.12440750002861023, 0.024261802434921265, 0.019711345434188843, -0.04622936248779297, -0.03388027846813202, -0.004525903612375259, 0.08190762996673584, 0.013902969658374786, -0.09862202405929565, -0.0674068033695221, -0.08491221070289612, -0.0902959406375885], [-0.014392665587365627, -0.050000064074993134, 0.08527173101902008, -0.0627300813794136, -0.014820484444499016, -0.048475753515958786, 0.04901646450161934, -0.05264650657773018, 0.04311709478497505, 0.01623518578708172, -0.07562810182571411, 0.03690572455525398, 0.049543388187885284, 0.09983420372009277, -0.08355655521154404, 0.13642610609531403, -0.07928842306137085, 0.1136803850531578, 0.09399761259555817, 0.11154486238956451, -0.04882032051682472, 0.12419124692678452, 0.12515705823898315, 0.08908809721469879, 0.06246166676282883, -0.06090221554040909, -0.01867741160094738, 0.06607501208782196, 0.148895725607872, -0.031180309131741524, -0.10244676470756531, 0.004233602434396744, 0.09649375081062317, -0.06870609521865845, -0.11822634935379028, -0.036664754152297974, -0.0070050545036792755, 0.1200445294380188, 0.024484217166900635, -0.04485318064689636, -0.1067393571138382, -0.09304255247116089, 0.11465749144554138, 0.0792762041091919, -0.06849208474159241, -0.06514899432659149, 0.03629887104034424, -0.044685155153274536, -0.05463695526123047, 0.07765829563140869, 0.08418005704879761, -0.09168621897697449, 0.029937744140625, -0.0308837890625, 0.04782481491565704, 0.11662817001342773, -0.09962999820709229, -0.07325798273086548, -0.06631933152675629, 0.005092892795801163, -0.022984236478805542, -0.015580005943775177, -0.11716631054878235, 0.06940777599811554], [0.049741730093955994, -0.2314753383398056, -0.10954681783914566, -0.28852128982543945, -0.22781255841255188, -0.2706015110015869, -0.0675763189792633, -0.07069969922304153, -0.13107986748218536, -0.1248140037059784, -0.03886052593588829, 0.019345598295331, -0.013008547946810722, -0.03002655878663063, 0.08678776025772095, -0.06906194239854813, -0.11844021826982498, -0.08698642253875732, 0.03946392238140106, -0.10561420023441315, -0.009781577624380589, -0.07905248552560806, -0.019658470526337624, 0.05964178964495659, -0.05219247564673424, -0.027897488325834274, -0.17434176802635193, -0.08321146667003632, -0.006773657165467739, -0.20687419176101685, -0.0745101347565651, -0.24029669165611267, 0.08503700792789459, -0.05009779334068298, 0.04441837966442108, -0.03938262164592743, -0.025158599019050598, -0.11230719089508057, -0.11464828252792358, 0.058679088950157166, -0.04231220483779907, -0.06391406059265137, 0.08064396679401398, -0.12382566928863525, 0.0690070390701294, 0.047524452209472656, -0.045139625668525696, -0.0681288093328476, -0.08874714374542236, 0.004084277898073196, -0.10031644999980927, 0.10283699631690979, -0.08953802287578583, -0.07834094762802124, -0.10785889625549316, -0.01361759752035141, 0.019475281238555908, 0.10728560388088226, 0.021862849593162537, 0.12372258305549622, -0.08634611964225769, 0.11807817220687866, -0.11895871162414551, -0.04926411807537079], [-0.021330226212739944, -0.0029737181030213833, 0.026530323550105095, 0.010583149269223213, -0.04229264706373215, -0.03957844525575638, -0.02004898153245449, 0.09655560553073883, 0.033553577959537506, 0.008049719966948032, -0.039022669196128845, 0.0281754732131958, 0.07417142391204834, 0.08735407888889313, -0.08187729865312576, -0.03212312236428261, -0.03286316245794296, 0.11161648482084274, -0.0004985580453649163, -0.099204421043396, 0.03758266195654869, 0.00516018969938159, 0.10844837129116058, -0.06421079486608505, 0.03235397860407829, 0.09575804322957993, -0.08207416534423828, -0.043897595256567, -0.015458092093467712, -0.09305747598409653, 0.10429621487855911, -0.004325263202190399, 0.11623881757259369, 0.10572028160095215, -0.05036191642284393, -0.06828758120536804, -0.11635152995586395, 0.08371786773204803, -0.003522085025906563, 0.06638611853122711, -0.07514303922653198, 0.11093229055404663, 0.010082639753818512, 0.12069173157215118, 0.09323498606681824, -0.11387947201728821, 6.309529999271035e-05, -0.08146488666534424, -0.03982378542423248, -0.035676032304763794, -0.08155043423175812, 0.100594162940979, -0.06205868721008301, -0.10744775831699371, -0.1005161851644516, 0.013530932366847992, 0.01683446764945984, -0.004163805395364761, -0.017382755875587463, -0.035096198320388794, -0.033671632409095764, 0.1078268438577652, -0.10670983791351318, 0.0908806174993515], [-0.013606352731585503, -0.6465765833854675, -0.7270193696022034, -0.6729928851127625, -0.6926367878913879, -0.4931712746620178, -0.43179866671562195, -0.32994189858436584, -0.5553702712059021, -0.23473022878170013, -0.2855799198150635, -0.3078845739364624, -0.21120993793010712, -0.26949289441108704, -0.15892145037651062, -0.27244848012924194, -0.1620040386915207, -0.0870189219713211, -0.1458330899477005, 0.027354586869478226, -0.04791708663105965, -0.03296252712607384, -0.10789443552494049, -0.0726635754108429, -0.044843852519989014, -0.0889592096209526, -0.0010214621433988214, -0.026089845225214958, 0.043587833642959595, -0.02881910651922226, -0.02155313454568386, 0.01649422198534012, 0.11659538745880127, 0.06045916676521301, 0.07658416032791138, 0.03250002861022949, 0.07291162014007568, -0.11490592360496521, -0.043377503752708435, 0.025007888674736023, -0.05805957317352295, -0.06169167160987854, 0.03672918677330017, 0.08075548708438873, -0.0584481805562973, -0.10655388236045837, -0.09780800342559814, -0.08447287976741791, 0.11025318503379822, -0.09668496251106262, -0.07071919739246368, -0.02135656774044037, 0.07685932517051697, -0.06311929225921631, -0.011119581758975983, 0.08527553081512451, 0.09229077398777008, -0.07592505216598511, 0.0708647072315216, 0.045444339513778687, 0.07058645784854889, 0.032793283462524414, -0.100629061460495, -0.12435643374919891], [0.06426006555557251, -0.24004103243350983, -0.1564023494720459, -0.27776414155960083, -0.09786415100097656, -0.24523697793483734, -0.2573876976966858, -0.07968062907457352, -0.07385803014039993, -0.14816036820411682, -0.20176324248313904, -0.10636268556118011, -0.16779889166355133, -0.08451021462678909, -0.14835183322429657, -0.039177604019641876, 0.028159664943814278, -0.11176101863384247, -0.04043923318386078, -0.009727013297379017, -0.03526902571320534, 0.05278683826327324, -0.11536175012588501, 0.02059544064104557, 0.008565990254282951, -0.02781824953854084, -0.1575263887643814, -0.11751623451709747, -0.2061515748500824, -0.02714475616812706, -0.1500692218542099, -0.05823202058672905, -0.03785715997219086, -0.09404091536998749, 0.04282504320144653, -0.0089927539229393, -0.039042696356773376, 0.026601195335388184, 0.024663090705871582, 0.05382315814495087, 0.05150216817855835, 0.04703408479690552, -0.09679991006851196, -0.05443495512008667, -0.05932241678237915, -0.09290914237499237, 0.026430770754814148, -0.07579948008060455, -0.0886509120464325, -0.026318103075027466, 0.033196330070495605, 0.01828041672706604, -0.11731603741645813, 0.0688953697681427, -0.014813996851444244, -0.02254404127597809, -0.0776250958442688, -0.012473903596401215, 0.045091256499290466, -0.010358579456806183, 0.0645914375782013, -0.08494548499584198, 0.11836312711238861, -0.06476143002510071], [0.06334597617387772, -0.10752372443675995, -0.15640448033809662, -0.10781698673963547, -0.12879055738449097, -0.193413645029068, -0.2478042095899582, -0.14130251109600067, -0.2164117842912674, -0.16431283950805664, -0.17993992567062378, 0.03761366754770279, -0.14110328257083893, 0.05951021984219551, -0.01874338835477829, 0.012517968192696571, 0.0983981043100357, -0.07347168773412704, -0.046735670417547226, -0.020369140431284904, -0.000772161060012877, 0.0010566913988441229, 0.007967757061123848, -0.009181223809719086, 0.009389546699821949, -0.02286931872367859, 0.12440311908721924, 0.1433364450931549, 0.02196148782968521, -0.0819416493177414, 0.10607428103685379, 0.05280441790819168, 0.02904103696346283, 0.08263637125492096, 0.06767387688159943, -0.02467036247253418, 0.0850663036108017, 0.013926662504673004, 0.07054530084133148, 0.051147863268852234, -0.00851915031671524, 0.10643750429153442, 0.027216747403144836, 0.019788488745689392, -0.08651383221149445, -0.09811830520629883, 0.11854973435401917, 0.065696120262146, -0.09521131217479706, 0.1102793961763382, 0.011589832603931427, -0.03658531606197357, 0.06577160954475403, -0.05629989504814148, 0.06084774434566498, -0.10020977258682251, 0.02338138222694397, 0.051300033926963806, 0.01539551466703415, -0.09998153150081635, 0.06137564778327942, -0.07465271651744843, 0.0015371153131127357, -0.04394592344760895], [0.07850221544504166, -0.253894567489624, -0.28080132603645325, -0.29678961634635925, -0.10973178595304489, -0.08657222986221313, -0.1574275940656662, -0.14888393878936768, -0.17992323637008667, -0.211276113986969, -0.02904762513935566, -0.038859304040670395, -0.07813525944948196, -0.11037907004356384, -0.17539642751216888, -0.06234351918101311, -0.13349057734012604, 0.03464549034833908, -0.16334344446659088, -0.045157186686992645, 0.012489469721913338, -0.10283020883798599, 0.00853571854531765, -0.07273812592029572, -0.09360890090465546, -0.0481942780315876, 0.026274174451828003, 0.006029194686561823, -0.008674469776451588, -0.1793520152568817, -0.13436844944953918, -0.17942389845848083, 0.022826477885246277, -0.045518651604652405, 0.02210177481174469, -0.0024891365319490433, 0.04591423273086548, 0.0591234415769577, 0.07816106081008911, -0.12473669648170471, -0.025927528738975525, -0.11738429963588715, -0.09803889691829681, 0.037274181842803955, 0.004167679697275162, 0.02323909103870392, -0.01598764955997467, -0.12233701348304749, -0.05113755166530609, 0.014590688049793243, -0.09982961416244507, 0.0664820522069931, -0.10025851428508759, 0.019464805722236633, -0.07232055068016052, 0.08815537393093109, 0.038780078291893005, 0.08631797134876251, -0.03009691834449768, 0.0033622998744249344, -0.06416364014148712, -0.1090342104434967, -0.07101979851722717, 0.02426069974899292], [-0.05489926412701607, -0.3596355617046356, -0.25264477729797363, -0.13263779878616333, -0.30205607414245605, -0.319102019071579, -0.20868875086307526, -0.10327605158090591, -0.057255953550338745, -0.10520561784505844, -0.24274222552776337, -0.05961629003286362, -0.05414789170026779, -0.21847549080848694, -0.07845745235681534, -0.0338158905506134, -0.19054657220840454, 0.012976868078112602, -0.029032522812485695, -0.14870774745941162, -0.10000060498714447, 0.05936737731099129, -0.17333464324474335, 0.050066325813531876, -0.021612806245684624, 0.005883491598069668, 0.029285578057169914, 0.03786808252334595, -0.08501627296209335, 0.0016627332661300898, -0.0286627858877182, -0.1498018056154251, -0.09486056864261627, 0.12299582362174988, -0.06840549409389496, -0.08165042102336884, -0.11473418772220612, -0.10885429382324219, -0.10667586326599121, -0.0792696475982666, 0.04436756670475006, -0.05029462277889252, -0.014426551759243011, -0.02538415789604187, -0.025001555681228638, 0.0023507941514253616, 0.045787811279296875, -0.0954689085483551, -0.012997739017009735, 0.03787332773208618, -0.0778115838766098, -0.1065431535243988, -0.12303335964679718, 0.008515991270542145, -0.04622247815132141, -0.11323575675487518, -0.12253288924694061, -0.09339109063148499, 0.11424210667610168, -0.07230965793132782, 0.08046996593475342, 0.03511279821395874, 0.032304853200912476, -0.08519625663757324], [0.08161390572786331, -0.34853145480155945, -0.3138817250728607, -0.2787940502166748, -0.3749849200248718, -0.11712417006492615, -0.20175455510616302, -0.1913514882326126, -0.1557880938053131, -0.23680800199508667, -0.20994533598423004, -0.15471220016479492, -0.0681876614689827, -0.08504946529865265, -0.05065805837512016, -0.14530685544013977, 0.03636988252401352, 0.014481832273304462, -0.10885224491357803, -0.0013580045197159052, -0.11631380021572113, -0.07148699462413788, -0.15763603150844574, 0.010724817402660847, 0.05217824503779411, -0.07401862740516663, -0.11980090290307999, -0.12831902503967285, -0.02431917004287243, -0.12430179864168167, -0.13024961948394775, -0.09674730896949768, -0.015652701258659363, 0.031614795327186584, 0.028703957796096802, 0.07967406511306763, -0.06483440101146698, 0.027660071849822998, -0.019176125526428223, -0.004738587886095047, -0.09452812373638153, 0.06822086870670319, -0.049397751688957214, 0.0489528626203537, -0.08304868638515472, 0.07085919380187988, 0.033274292945861816, 0.11356844007968903, -0.08706696331501007, -0.09667931497097015, -0.012770958244800568, 0.06987939774990082, -0.09928655624389648, -0.027177810668945312, -0.10744248330593109, -0.04215802252292633, -0.024532809853553772, 0.0029734689742326736, -0.005350086838006973, -0.006450537592172623, -0.07272613048553467, 0.009444929659366608, -0.009966187179088593, -0.00773094967007637], [-0.018918516114354134, -0.37462010979652405, -0.25094836950302124, -0.411048948764801, -0.22341321408748627, -0.3466479778289795, -0.17347532510757446, -0.16998016834259033, -0.32420605421066284, -0.30121180415153503, -0.24382026493549347, -0.25490322709083557, -0.0610605850815773, -0.0975811704993248, -0.17594169080257416, -0.1571086198091507, 0.046844691038131714, -0.0493009090423584, -0.12549927830696106, 0.07327087968587875, 0.09173356741666794, -0.014115754514932632, -0.10470277070999146, -0.07530655711889267, -0.11960045248270035, 0.0706978365778923, 0.0055949026718735695, -0.13922525942325592, -0.06837912648916245, -0.057330984622240067, 0.052777018398046494, -0.06942977011203766, 0.08584785461425781, 0.11666639149188995, 0.0851868987083435, -0.09697411954402924, -0.11652247607707977, -0.07035912573337555, 0.03915104269981384, -0.055222779512405396, 0.016013771295547485, -0.008475206792354584, -0.09166127443313599, -0.11160439252853394, -0.11801046133041382, 0.06737551093101501, -0.06284856796264648, 0.08750498294830322, 0.057572633028030396, 0.10338175296783447, -0.039190903306007385, -0.008333168923854828, -0.10493479669094086, 0.09000745415687561, -0.04171772301197052, -0.11910635232925415, 0.04248066246509552, 0.03446342051029205, 0.12037983536720276, 0.06213890016078949, 0.040771469473838806, 0.03981506824493408, 0.07214438915252686, 0.1190682202577591], [0.041481174528598785, -0.41569268703460693, -0.3891998529434204, -0.40032726526260376, -0.34096258878707886, -0.247685045003891, -0.26281020045280457, -0.24198715388774872, -0.10791689157485962, -0.08863093703985214, -0.2089022994041443, -0.16310660541057587, -0.1426984667778015, -0.010017084889113903, -0.03803269565105438, -0.032019395381212234, -0.002084932988509536, 0.02793748304247856, 0.036492493003606796, -0.08487091958522797, -0.19615328311920166, -0.13961690664291382, -0.16059666872024536, -0.1655128002166748, -0.07611489295959473, -0.2231837660074234, -0.20443060994148254, -0.07497388869524002, -0.08840145170688629, -0.07076999545097351, -0.11361139267683029, -0.304012656211853, -0.08061476051807404, -0.0533662885427475, -0.005318108946084976, -0.032262206077575684, -0.06605803966522217, 0.10400769114494324, -0.08529454469680786, -0.0006099645979702473, 0.057489603757858276, 0.010881669819355011, 0.0772557258605957, 0.12388113141059875, -0.11310802400112152, -0.05777379870414734, 0.049436748027801514, -0.11587762832641602, 0.10320784151554108, 0.0158928781747818, 0.09609825909137726, -0.06865258514881134, 0.002000095322728157, 0.017145618796348572, 0.086163729429245, -0.019184023141860962, -0.026484087109565735, 0.08007480204105377, -0.011830873787403107, 0.021326765418052673, -0.09847716987133026, -0.007027123123407364, -0.015794336795806885, 0.12233197689056396], [0.02400563657283783, -0.4830140173435211, -0.30033114552497864, -0.33800891041755676, -0.4408990740776062, -0.37982794642448425, -0.2429727464914322, -0.19638991355895996, -0.13576486706733704, -0.3045070767402649, -0.17223970592021942, -0.1334228515625, -0.14722120761871338, -0.16092492640018463, -0.007220173254609108, -0.07114255428314209, -0.08522845804691315, -0.04168945178389549, -0.07893877476453781, -0.04718971624970436, -0.08677783608436584, 0.04714319482445717, -0.17419153451919556, 0.04901988059282303, 0.03128853812813759, -0.1827881932258606, -0.043219223618507385, 0.005576380994170904, -0.17443527281284332, -0.03548784554004669, -0.16606789827346802, -0.05404457449913025, -0.06983941793441772, 0.0790955126285553, 0.0884646624326706, -0.029887855052947998, -0.10667908191680908, -0.011138416826725006, 0.04066064953804016, 0.011482812464237213, 0.010151468217372894, -0.09871277213096619, 0.06276920437812805, 0.11037220060825348, -0.08933357894420624, -0.10207174718379974, 0.06535038352012634, -0.009707383811473846, 0.020071476697921753, -0.07400885224342346, 0.08261775970458984, -0.0024208594113588333, 0.11963912844657898, 0.042408183217048645, 0.124031662940979, -0.10641176998615265, -0.10141338407993317, 0.09882986545562744, 0.04241161048412323, 0.07529807090759277, 0.0380338579416275, -0.014935411512851715, -0.115117147564888, -0.11067341268062592], [0.07987956702709198, -0.2801087498664856, -0.19734042882919312, -0.31807026267051697, -0.34068968892097473, -0.2667563855648041, -0.3177882134914398, -0.28625553846359253, -0.14105510711669922, -0.19490225613117218, -0.16853326559066772, -0.1424030363559723, -0.08774159103631973, -0.1811414659023285, 0.05692225694656372, -0.14175614714622498, 0.07751584053039551, -0.1084185391664505, 0.1000811904668808, -0.03686206415295601, -0.13967184722423553, -0.019534960389137268, 0.03093789890408516, -0.14523102343082428, -0.12584064900875092, 0.02502749301493168, 0.02173774503171444, -0.20877456665039062, -0.19420742988586426, -0.03496423736214638, -0.16820305585861206, -0.04500735178589821, -0.02460494637489319, -0.05402567982673645, 0.055994629859924316, -0.05449172854423523, 0.08481207489967346, 0.027868658304214478, -0.03732757270336151, 0.03786417841911316, -0.03964677453041077, 0.022762566804885864, -0.07969824969768524, -0.059869542717933655, -0.11689580976963043, -0.11970852315425873, 0.0734044760465622, -0.06636875867843628, -0.04264947772026062, 0.016921982169151306, -0.08322085440158844, 0.057546570897102356, -0.0769779235124588, -0.059354543685913086, -0.00022231799084693193, 0.08397111296653748, -0.041407689452171326, 0.05534455180168152, -0.056077852845191956, 0.06810829043388367, 0.007368478924036026, 0.07838404178619385, 0.07568733394145966, 0.07705478370189667], [-0.046823084354400635, -0.24332284927368164, -0.24531275033950806, -0.1603163331747055, -0.25677743554115295, -0.2618664503097534, -0.20894066989421844, -0.14826256036758423, -0.23935818672180176, -0.1730731874704361, 0.007863367907702923, -0.12693512439727783, -0.025197114795446396, -0.16031953692436218, -0.016691120341420174, 0.04261857643723488, -0.060550566762685776, -0.011713980697095394, 0.09285814315080643, 0.008422096259891987, 0.09141044318675995, -0.10466800630092621, -0.13403402268886566, 0.0429835207760334, -0.03804117441177368, -0.1214500367641449, 0.07549583911895752, -0.0490419901907444, 0.0219966359436512, -0.04217533767223358, 0.03061714768409729, 0.002564297756180167, -0.1114412397146225, -0.12482477724552155, 0.0929124504327774, 0.10510900616645813, -0.045524075627326965, 0.12245424091815948, -0.03783431649208069, 0.054814308881759644, -0.06456930935382843, 0.024389877915382385, -0.0345408171415329, 0.08452370762825012, 0.06673291325569153, 0.1107417643070221, 0.10723218321800232, -0.006285030394792557, -0.0360615998506546, -0.11814634501934052, -0.07260245084762573, 0.06933115422725677, 0.08789446949958801, 0.009406305849552155, 0.0895286351442337, -0.08579704165458679, -0.10810843110084534, -0.07875993847846985, -0.03994622826576233, -0.09761910140514374, -0.05533246695995331, -0.10624627768993378, -0.006688091903924942, -0.12488757073879242], [0.0898185446858406, -0.3554195165634155, -0.40646597743034363, -0.18455559015274048, -0.3491706848144531, -0.33132079243659973, -0.1993737816810608, -0.0837547555565834, -0.24532847106456757, -0.1715172976255417, -0.2042400985956192, -0.09226639568805695, -0.2291000932455063, -0.20509351789951324, 0.0305622648447752, -0.17497529089450836, -0.0496523454785347, -0.09514392912387848, -0.09776829928159714, -0.12634038925170898, -0.07893344759941101, -0.10667339712381363, -0.037489552050828934, -0.02915588580071926, 0.018252583220601082, -0.14615871012210846, -0.05844317749142647, -0.16233974695205688, -0.02263602800667286, -0.06259653717279434, -0.12083174288272858, -0.020691068843007088, -0.11608634889125824, -0.017392724752426147, -0.08119030296802521, 0.11798448860645294, -0.1191273182630539, -0.07851961255073547, 0.08357410132884979, -0.0888662040233612, -0.03026677668094635, 0.032501399517059326, 0.06177935004234314, 0.11326169967651367, 0.10535874962806702, 0.08543483912944794, 0.01941286027431488, 0.08964581787586212, 0.04709814488887787, 0.0916721522808075, -0.11128166317939758, 0.010213024914264679, -0.10596597194671631, -0.015454523265361786, -0.08353236317634583, -0.10479843616485596, -0.06231518089771271, -0.10632924735546112, -0.014724351465702057, -0.09206195175647736, 0.10373237729072571, -0.1190246045589447, -0.07819610834121704, -0.03491443395614624], [0.013942108489573002, -0.2511865496635437, -0.3903610408306122, -0.2659977376461029, -0.2673337757587433, -0.2151695191860199, -0.32235535979270935, -0.11856117099523544, -0.2809810936450958, -0.07199423760175705, -0.1174229308962822, -0.028645571321249008, -0.025363750755786896, 0.03482823073863983, -0.03836007043719292, -0.10004238784313202, -0.052616674453020096, -0.12728285789489746, 0.003051788778975606, -0.08976786583662033, -0.034364257007837296, 0.035356659442186356, 0.05152115970849991, 0.040075112134218216, -0.09003202617168427, 0.13619837164878845, -0.08705355226993561, 0.11545867472887039, -0.08802143484354019, 0.05970203876495361, -0.14459460973739624, -0.10414055734872818, 0.04068148136138916, -0.11634445190429688, -0.10297887027263641, -0.02665551006793976, 0.0054616667330265045, 0.0854647159576416, 0.06229262053966522, 0.08419422805309296, 0.035645827651023865, 0.09669825434684753, -0.0029848087579011917, -0.08803527057170868, 0.05211317539215088, 0.12300160527229309, -0.04628667235374451, -0.12099568545818329, -0.09944392740726471, 0.012904144823551178, -0.08251231908798218, -0.09326663613319397, 0.014781109988689423, -0.04741024971008301, 0.07285064458847046, 0.032457754015922546, 0.06966443359851837, -0.09569008648395538, -0.08848075568675995, -0.08688169717788696, 0.028798744082450867, -0.03860923647880554, -0.12428350746631622, -0.10676950216293335], [0.02007165551185608, -0.24965770542621613, -0.10101956874132156, -0.06361928582191467, -0.053456492722034454, -0.2303282469511032, -0.07342636585235596, -0.19514162838459015, 0.0022348868660628796, -0.1875154674053192, -0.08983668684959412, -0.12151018530130386, 0.03931166231632233, 0.05865713208913803, -0.15777602791786194, -0.11016391962766647, -0.029215091839432716, -0.01740516722202301, 0.06368207931518555, 0.03465026617050171, -0.1260618418455124, 0.10075469315052032, 0.0033721679355949163, -0.02892942726612091, 0.10905902087688446, 0.06312709301710129, 0.00010717873374233022, 0.03561314940452576, 0.12597641348838806, -0.09399763494729996, 0.021615201607346535, -0.03103567846119404, 0.0991094559431076, 0.03155727684497833, -0.034478724002838135, 0.11400370299816132, 0.09364555776119232, -0.10590828955173492, 0.050581857562065125, -0.06944505870342255, 0.11076013743877411, -0.06890322268009186, -0.012639947235584259, 0.037864312529563904, -0.10571315884590149, -0.12298120558261871, 0.014482833445072174, 0.04421405494213104, -0.030899107456207275, -0.0539669543504715, 0.09386342763900757, -0.11461424827575684, -0.07408605515956879, 0.05297371745109558, 0.06163623929023743, -0.07997845113277435, -0.09812089800834656, 0.04808884859085083, 0.07476206123828888, 0.055726557970047, -0.08119641244411469, -0.06531922519207001, -0.008864648640155792, 0.020634084939956665], [0.019850188866257668, -0.1316605657339096, -0.14007942378520966, -0.15191470086574554, -0.1521516591310501, -0.10721205174922943, -0.06231324374675751, -0.13871300220489502, 0.023932820186018944, -0.09913691133260727, 0.00596465403214097, 0.0522945336997509, -0.03474997729063034, 0.017916761338710785, -0.031676728278398514, -0.04446500912308693, -0.08448652923107147, -0.10848136991262436, -0.1300382912158966, 0.0940977931022644, 0.02302536554634571, -0.09723718464374542, -0.12917916476726532, 0.0010475985473021865, -0.15044276416301727, -0.014029539190232754, -0.08998236060142517, -0.10722577571868896, -0.15704266726970673, -0.17113439738750458, -0.1117297112941742, -0.11941356211900711, -0.06278130412101746, -0.050001561641693115, 0.08058668673038483, 0.05552247166633606, 0.006458792835474014, 0.014502160251140594, -0.12473618984222412, -0.08178962767124176, -0.0586591511964798, 0.10162021219730377, -0.022975340485572815, -0.007564503699541092, -0.024476006627082825, 0.010325677692890167, -0.007074359804391861, -0.05105090141296387, -0.07350125908851624, -0.0794428288936615, -0.09195421636104584, -0.01772645115852356, -0.03025224804878235, -0.11553922295570374, 0.01992201805114746, 0.07727314531803131, 0.10936667025089264, 0.03318680822849274, -0.08468502759933472, -0.025380536913871765, 0.029892221093177795, -0.04567311704158783, -0.07563294470310211, -0.06810754537582397], [-0.020364919677376747, -0.1381937712430954, -0.03740450367331505, -0.0813000500202179, -0.1374863088130951, -0.15992122888565063, -0.07605446130037308, -0.18151310086250305, -0.1104469746351242, 0.03599800169467926, 0.056926798075437546, 0.07194063812494278, -0.034665707498788834, -0.1378220170736313, -0.009783172979950905, -0.05410674214363098, 0.05795608460903168, -0.08692585676908493, 0.051844943314790726, -0.009432850405573845, 0.054609641432762146, 0.11050070077180862, 0.041967958211898804, 0.1364324390888214, -0.05732312053442001, -0.05300768464803696, 0.07642266899347305, 0.05782970413565636, -0.08149904012680054, 0.07327161729335785, 0.027711698785424232, -0.1640264391899109, 0.08158735930919647, -0.07273955643177032, 0.06255455315113068, 0.06755158305168152, 0.09670363366603851, 0.07467761635780334, -0.07414905726909637, 0.0502939373254776, -0.12252198159694672, 0.05271589756011963, 0.006132978945970535, 0.0296638160943985, -0.0713658481836319, 0.009923674166202545, -0.06690311431884766, -0.1131855696439743, -0.06914335489273071, -0.11247490346431732, 0.008418269455432892, 0.0004989211447536945, -0.11135932803153992, 0.009462721645832062, 0.0930333286523819, 0.0374566912651062, -0.02362494170665741, -0.12223145365715027, 0.06437556445598602, -0.00017081957776099443, 0.08659140765666962, 0.06862437725067139, 0.10345682501792908, 0.06587721407413483], [-0.027374165132641792, -0.11318409442901611, -0.17330865561962128, -0.0597432404756546, -0.15831710398197174, -0.041389282792806625, -0.08608203381299973, -0.1670961230993271, -0.06963412463665009, -0.0631515383720398, 0.05085734650492668, -0.04992341250181198, -0.02646864950656891, 0.02568691596388817, -0.14374954998493195, -0.0157453753054142, -0.09403149038553238, 0.03412735089659691, 0.1507110297679901, 0.1404493898153305, 0.055603548884391785, 0.10796479880809784, 0.12437031418085098, 0.0234951414167881, -0.043154872953891754, 0.1972828209400177, 0.07359413057565689, 0.01710456609725952, 0.053167905658483505, 0.0781707838177681, 0.00343689345754683, -0.030264314264059067, 0.10333435237407684, 0.01569780707359314, 0.11533907055854797, 0.0933464765548706, 0.05952802300453186, 0.07491953670978546, -0.03672204911708832, -0.08856163918972015, -0.10531483590602875, -0.023003384470939636, -0.11763381958007812, -0.055826395750045776, -0.021433115005493164, -0.006690699607133865, 0.11362980306148529, 0.037215620279312134, -0.01462797075510025, 0.0048972852528095245, 0.10474632680416107, 0.09547069668769836, -0.11005151271820068, 0.11382541060447693, 0.08725029230117798, -0.05069805681705475, 0.024295613169670105, 0.04646427929401398, 0.11815425753593445, -0.017189621925354004, -0.017466217279434204, -0.0881938636302948, 0.031122103333473206, -0.04132123291492462], [0.0002297563769388944, 0.012934375554323196, -0.07758867740631104, -0.10369198769330978, -0.04384633153676987, -0.15757879614830017, -0.11785707622766495, 0.03663602098822594, 0.015592602081596851, 0.04025982692837715, -0.08695636689662933, -0.061371415853500366, 0.09519605338573456, -0.021946176886558533, -0.08486615121364594, -0.06269323825836182, 0.09040935337543488, -0.004236631561070681, 0.06279727071523666, -0.05892562121152878, 0.10176850855350494, 0.09296293556690216, 0.17369918525218964, -0.06253455579280853, -0.0723000019788742, 0.10984627902507782, 0.15566854178905487, 0.019993964582681656, 0.06674892455339432, -0.04130331799387932, -0.021508805453777313, -0.12081608921289444, 0.0698438286781311, 0.052707523107528687, 0.01964433491230011, 0.08469788730144501, -0.08190794289112091, -0.07197368144989014, 0.0664316713809967, -0.047505512833595276, 0.08886894583702087, -0.10236687958240509, 0.010494239628314972, 0.0011641690507531166, -0.04726620018482208, 0.0020118970423936844, 0.07919798791408539, 0.09891143441200256, 0.07170790433883667, -0.05874700844287872, -0.04383412003517151, -0.10051712393760681, -0.004939515143632889, 0.10952858626842499, 0.05885106325149536, 0.033363521099090576, -0.07541948556900024, -0.023713186383247375, 0.11742225289344788, 0.06140333414077759, -0.02711963653564453, -0.00957653671503067, -0.009778626263141632, 0.05420815944671631], [0.045346543192863464, -0.1747828722000122, -0.15150216221809387, -0.2760813534259796, -0.23535530269145966, -0.23933641612529755, -0.13129796087741852, -0.14315129816532135, -0.15382803976535797, -0.14786814153194427, -0.17911653220653534, -0.024630902335047722, 0.004242973867803812, 0.01871122606098652, 0.07713686674833298, -0.13321617245674133, 0.021028900519013405, 0.023806698620319366, -0.06182503700256348, -0.0941716656088829, 0.08459340780973434, -0.08868510276079178, -0.10134321451187134, 0.06367682665586472, -0.09394966810941696, -0.10139831155538559, 0.03497104346752167, -0.08667755126953125, -0.11867517977952957, -0.183139368891716, -0.06236271187663078, -0.02731133997440338, -0.09132945537567139, -0.0475245863199234, 0.03488549590110779, 0.0019039520993828773, 0.015344731509685516, -0.09044639766216278, -0.05879847705364227, -0.0532485693693161, -0.026830807328224182, -0.03183485567569733, 0.04137846827507019, 0.12429773807525635, -0.07016679644584656, 0.120864138007164, 0.002877207472920418, -0.025784611701965332, 0.11940471827983856, -0.060996606945991516, -0.05300222337245941, 0.06775932013988495, -0.07937467098236084, 0.0002577605191618204, 0.05180533230304718, 0.023824036121368408, 0.08343236148357391, 0.08401453495025635, 0.05987834930419922, 0.05599395930767059, 0.011029087007045746, 0.07066112756729126, 0.03695216774940491, 0.10794924199581146], [0.014818882569670677, -0.4229351580142975, -0.25904709100723267, -0.29366451501846313, -0.3455459475517273, -0.3532223403453827, -0.2643774747848511, -0.18564915657043457, -0.30669575929641724, -0.26496559381484985, -0.029437143355607986, -0.012401447631418705, -0.08371583372354507, -0.16987812519073486, -0.16583824157714844, -0.11671916395425797, 0.06994208693504333, -0.028837459161877632, -0.07177019864320755, 0.019843587651848793, -0.019364191219210625, -0.10476415604352951, -0.07718683034181595, -0.0012015895918011665, -0.06078751012682915, -0.1494070291519165, -0.013770421035587788, -0.1177237331867218, -0.16270712018013, -0.15495333075523376, -0.16035915911197662, 0.0033408806193619967, -0.0442257821559906, -0.055865660309791565, -0.09563462436199188, -0.07450003921985626, -0.02990041673183441, -0.024368226528167725, -0.058739617466926575, 0.02629084885120392, -0.04226404428482056, -0.09731779992580414, 0.038295432925224304, 0.059886083006858826, 0.008905969560146332, 0.009257487952709198, -0.07978954911231995, -0.08550502359867096, 0.06585073471069336, -0.0009930888190865517, -0.05539211630821228, -0.10591337084770203, -0.0742524266242981, -0.08278849720954895, -0.09568837285041809, 0.08514158427715302, -0.06282201409339905, 0.11732412874698639, 0.01668737828731537, 0.03813162446022034, 0.008435018360614777, -0.020187079906463623, -0.09989820420742035, -0.1118386834859848], [-0.022270288318395615, -0.13988177478313446, -0.09464389830827713, -0.2638995051383972, -0.18002533912658691, -0.056332893669605255, -0.10386963933706284, -0.1210566982626915, -0.19749633967876434, -0.07714566588401794, -0.06445489078760147, -0.052024319767951965, -0.007960825227200985, -0.09884871542453766, -0.13244545459747314, -0.026412630453705788, 0.010049674659967422, 0.1020687147974968, 0.008763838559389114, -0.0021252899896353483, -0.048351384699344635, -0.030922655016183853, 0.019137883558869362, 0.09784985333681107, 0.16066986322402954, -0.012307391501963139, 0.12897199392318726, -0.032099608331918716, -0.0930628702044487, -0.05765201523900032, 0.10798417031764984, -0.12300768494606018, 0.0030993539839982986, -0.0761217325925827, -0.02955956757068634, 0.11792990565299988, -0.0689556896686554, -0.017711669206619263, -0.03401625156402588, 0.11935700476169586, 0.021375447511672974, -0.08666346967220306, 0.12462396919727325, -0.031007736921310425, -0.12239275872707367, 0.021106943488121033, 0.007400128990411758, 0.03569468855857849, 0.04921795427799225, -0.008657239377498627, 0.09309281408786774, -0.07163652777671814, -0.05500118434429169, 0.09197062253952026, -0.05027405917644501, -0.101376011967659, 0.001485631801187992, 0.10717663168907166, -0.001229853369295597, 0.10532748699188232, 0.09285850822925568, -0.057850271463394165, 0.07929490506649017, 0.025698497891426086], [-0.05335204303264618, -0.16969968378543854, -0.3173953890800476, -0.07938569784164429, -0.12086658924818039, -0.20220686495304108, -0.0770411342382431, -0.18953266739845276, -0.16505181789398193, -0.09811729937791824, -0.0917058140039444, -0.16582538187503815, -0.17676247656345367, -0.13376101851463318, 0.058475423604249954, -0.10445276647806168, 0.002227541757747531, -0.051122989505529404, -0.040204089134931564, 0.11487412452697754, 0.08980665355920792, -0.004567904397845268, -0.025579098612070084, 0.1372830718755722, 0.0128718800842762, 0.02623232640326023, -0.03294666111469269, -0.04948418587446213, 0.08305397629737854, -0.06912103295326233, -0.15333756804466248, -0.26189151406288147, 0.05236193537712097, 0.110362708568573, -0.11214995384216309, 0.11598661541938782, -0.0913340300321579, -0.12471127510070801, 0.05046321451663971, 0.028040707111358643, 0.05706402659416199, -0.06068214774131775, 0.00644003227353096, -0.078497976064682, -0.11565986275672913, -0.015652626752853394, -0.11861926317214966, -0.040179282426834106, 0.10674676299095154, 0.07027594745159149, -0.07380117475986481, -0.06885106861591339, -0.037217676639556885, 0.07623587548732758, 0.020386025309562683, -0.08493253588676453, -0.03763340413570404, -0.06172807514667511, -0.11186186969280243, 0.11170361936092377, 0.08822610974311829, 0.016268879175186157, -0.0119529590010643, 0.05807681381702423], [-0.036233771592378616, -0.17894546687602997, -0.24499879777431488, -0.06569556891918182, -0.224103644490242, -0.19536781311035156, -0.07808148115873337, -0.1631142944097519, -0.009981191717088223, -0.13630010187625885, -0.11790799349546432, 0.015827685594558716, 0.057286933064460754, -0.11192278563976288, -0.035961247980594635, 0.06950269639492035, -0.1024373322725296, -0.11311759799718857, 0.09432565420866013, -0.008945988491177559, 0.03537299111485481, 0.009749576449394226, -0.02492273412644863, 0.10559911280870438, 0.03448008745908737, 0.10750388354063034, 0.040106769651174545, 0.022020693868398666, 0.07398747652769089, 0.010159699246287346, -0.003993641119450331, -0.09472540766000748, -0.09982529282569885, 0.09383410215377808, -0.08330370485782623, -0.06351804733276367, 0.027961790561676025, -0.05511687695980072, -0.03365790843963623, -0.07920175790786743, -0.0951358824968338, 0.09741762280464172, -0.08828510344028473, 0.07873983681201935, -0.06098423898220062, -0.08053921163082123, 0.10347862541675568, -0.12403498589992523, 0.0993095189332962, 0.05071747303009033, -0.10079292953014374, 0.047843173146247864, 0.04694928228855133, 0.06210196018218994, -0.10419239103794098, -0.09203989803791046, 0.051600903272628784, -0.07970967888832092, -0.08480799198150635, 0.12125971913337708, 0.013653792440891266, 0.07329471409320831, 0.011163018643856049, -0.0880531370639801], [-0.06779055297374725, -0.22450603544712067, -0.16858114302158356, -0.18799589574337006, -0.1631699800491333, -0.22948648035526276, -0.07583409547805786, -0.08024352788925171, -0.08635127544403076, -0.1990678459405899, -0.07622373104095459, 0.019983209669589996, -0.0378541462123394, -0.023369232192635536, -0.1842219978570938, -0.15826934576034546, -0.03275734931230545, 0.018854279071092606, -0.002140054712072015, -0.10755985230207443, -0.10017840564250946, -0.0943022146821022, -0.025091558694839478, 0.028469448909163475, -0.12457148730754852, -0.0353282168507576, -0.17452372610569, -0.12758831679821014, -0.07222612202167511, -0.1714571714401245, -0.156427264213562, -0.4316156804561615, 0.046373724937438965, -0.037246301770210266, -0.015059240162372589, 0.0725187361240387, -0.116670161485672, -0.03558315336704254, 0.11564597487449646, 0.08041013777256012, 0.06286132335662842, 0.0034272093325853348, 0.03567929565906525, 0.10865898430347443, -0.030741989612579346, 0.024628937244415283, -0.0274265855550766, -0.06517340242862701, 0.04302893579006195, 0.07502955198287964, -0.10130247473716736, 0.03274182975292206, -0.06514924764633179, 0.10313171148300171, -0.10017050802707672, -0.04457820951938629, 0.061311691999435425, 0.11223682761192322, 0.014772854745388031, 0.06284558773040771, -0.07595743238925934, 0.0764947384595871, -0.12404948472976685, -0.11382874846458435], [0.01963987946510315, -0.3056616485118866, -0.31315305829048157, -0.234146848320961, -0.237381249666214, -0.048675309866666794, -0.15798711776733398, -0.10927959531545639, -0.22457915544509888, -0.1557820588350296, 0.030491787940263748, -0.07342802733182907, 0.08089940249919891, 0.009975887835025787, -0.060114067047834396, -0.10715539008378983, -0.10616524517536163, 0.0628710687160492, -0.10661190003156662, -0.08882413059473038, -0.09267629683017731, -0.019744563847780228, 0.037771694362163544, -0.037655338644981384, 0.09677118062973022, 0.008985443040728569, -0.07171696424484253, -0.09965410828590393, -0.1099068745970726, -0.2244286835193634, -0.17026439309120178, -0.24152743816375732, 0.06946812570095062, 0.1042557805776596, -0.0802856832742691, -0.05328008532524109, 0.10299260914325714, -0.09424440562725067, -0.04628486931324005, 0.11732098460197449, 0.10004733502864838, -0.06494796276092529, 0.0483463853597641, -0.03364519774913788, 0.10154314339160919, -0.03017657995223999, -0.04768282175064087, 0.08339828252792358, 0.026108890771865845, 0.029560327529907227, 0.048164576292037964, -0.04951487481594086, 0.05103582143783569, -0.07078921794891357, 0.07631081342697144, 0.08243577182292938, -0.06939063966274261, 0.1183023601770401, -0.0728694498538971, 0.12114372849464417, -0.04705289006233215, -0.07550732791423798, 0.050949305295944214, 0.054228514432907104], [0.08190259337425232, -0.3723054528236389, -0.39499232172966003, -0.37575748562812805, -0.4963769018650055, -0.4566406309604645, -0.38153886795043945, -0.21994462609291077, -0.33501920104026794, -0.22218970954418182, -0.24134200811386108, -0.2520521879196167, -0.17395789921283722, -0.1282985508441925, -0.2058778703212738, -0.07690602540969849, -0.19767650961875916, 0.006577941123396158, 0.008272916078567505, 0.010433461517095566, -0.05139775574207306, -0.18917617201805115, -0.055906809866428375, -0.06762576848268509, 0.01571926660835743, -0.09463883936405182, -0.1387663334608078, -0.1910676509141922, -0.026569055393338203, -0.11548622697591782, -0.12641608715057373, -0.19179600477218628, -0.03333987295627594, 0.08471287786960602, -0.04825906455516815, -0.06110315024852753, 0.07023358345031738, -0.0793389230966568, 0.08840736746788025, -0.059909120202064514, 0.09395015239715576, 0.05708375573158264, 0.01462893933057785, -0.0346413254737854, 0.1014399379491806, 0.04702329635620117, -0.10864019393920898, 0.03908303380012512, -0.10107769072055817, 0.040993645787239075, 0.11901985108852386, -0.08216287195682526, 0.02040746808052063, 0.12012247741222382, -0.05411869287490845, -0.06725603342056274, -0.11555279791355133, 0.07091321051120758, 0.00021316867787390947, -0.11181393265724182, 0.12187440693378448, 0.110735684633255, -0.1214638352394104, 0.07132692635059357], [-0.056422460824251175, -0.08331988006830215, -0.24222208559513092, -0.1873583197593689, -0.2713393568992615, -0.1390172392129898, -0.05019957199692726, -0.12795162200927734, -0.13029541075229645, -0.10390986502170563, -0.028764666989445686, -0.14724193513393402, -0.15645037591457367, -0.09271895885467529, -0.09172975271940231, -0.14737282693386078, -0.038503244519233704, 0.05578499287366867, 0.05116768181324005, 0.07863710820674896, 0.008328130468726158, 0.049876678735017776, -0.09416497498750687, 0.06182991713285446, -0.1082526445388794, 0.05670516937971115, 0.045944944024086, 0.06951688230037689, -0.10322719067335129, -0.024038823321461678, 0.017278354614973068, 0.0750831663608551, -0.021433651447296143, 0.06711515784263611, 0.015633538365364075, 0.1090744137763977, 0.04760579764842987, 0.03203748166561127, 0.041464224457740784, 0.048248112201690674, 0.12006103992462158, -0.11345528066158295, -0.06246693432331085, -0.09170173108577728, -0.004831675440073013, -0.06586994230747223, -0.02901412546634674, -0.05711391568183899, 0.006012070924043655, 0.06658944487571716, 0.06872504949569702, 0.12140168249607086, 0.03994216024875641, -0.05620868504047394, 0.06456519663333893, -0.038670048117637634, -0.10869322717189789, 0.10090343654155731, -0.10811281204223633, 0.11026394367218018, 0.05115807056427002, -0.09060622751712799, 0.11081735789775848, 0.023627445101737976], [0.00806728657335043, -0.21735726296901703, -0.15093261003494263, -0.2065015286207199, -0.10983151942491531, -0.0459274984896183, -0.16323040425777435, -0.20519660413265228, -0.05924512818455696, -0.08973785489797592, -0.1657082736492157, -0.007062354125082493, -0.14491085708141327, -0.0051331836730241776, 0.05909029394388199, 0.02920476347208023, -0.017365578562021255, -0.12342758476734161, -0.048943668603897095, 0.062014784663915634, 0.12308580428361893, -0.07027316093444824, 0.0185483880341053, 0.1511535942554474, -0.07398468255996704, -0.04892900213599205, -0.013146111741662025, -0.04414007440209389, -0.12824900448322296, -0.14163827896118164, -0.04846931993961334, -0.07190541177988052, 0.08137498795986176, -0.11549709737300873, -0.06474514305591583, 0.05437302589416504, -0.05432172119617462, 0.09952007234096527, -0.02316385507583618, -0.08971595764160156, 0.09330132603645325, -0.10304135084152222, -0.007170934230089188, -0.08720114827156067, 0.0418689101934433, 0.09934207797050476, -0.03733466565608978, 0.09893149137496948, 0.018994182348251343, 0.049957484006881714, 0.10032317042350769, -0.013517104089260101, -0.03932321071624756, -0.08502092957496643, -0.10182364284992218, 0.06715677678585052, 0.039443522691726685, -0.09576454758644104, 0.0027340222150087357, 0.032302841544151306, 0.002865629270672798, 0.11882518231868744, 0.10532642900943756, 0.10701511800289154], [0.02153647318482399, -0.23196972906589508, -0.27186453342437744, -0.10344050824642181, -0.10781942307949066, -0.09905532747507095, -0.24337926506996155, -0.07279536128044128, -0.2567688226699829, -0.18271048367023468, -0.05756329372525215, -0.09279954433441162, -0.16321514546871185, -0.028167108073830605, -0.00746020395308733, 0.030486874282360077, -0.0010514194145798683, -0.009155423380434513, 0.019136903807520866, -0.052596315741539, -0.006091515067964792, -0.00013516293256543577, 0.09757309406995773, 0.06671871989965439, -0.0015842734137549996, 0.008410240523517132, -0.008914157748222351, 0.06760238856077194, 0.06341633200645447, -0.09997282922267914, -0.06153438985347748, -0.004349676426500082, 0.00470130518078804, -0.06916800141334534, -0.12283644080162048, -0.12288549542427063, 0.031480565667152405, 0.10127812623977661, -0.020737960934638977, -0.08726608753204346, -0.04958942532539368, 0.03735809028148651, 0.12418758869171143, -0.011578507721424103, 0.040140166878700256, -0.027653858065605164, -0.09853541851043701, -0.11748974025249481, -0.06687095761299133, -0.1163804829120636, 0.10570980608463287, -0.05788546800613403, -0.03767456114292145, -0.1126929223537445, -0.04905995726585388, -0.05041475594043732, -0.011261828243732452, -0.0027934182435274124, -0.08182503283023834, -0.010610215365886688, -0.11540260910987854, -0.009659908711910248, -0.10612955689430237, 0.08387334644794464], [0.03319687768816948, -0.230229452252388, -0.3784888684749603, -0.19982174038887024, -0.3324747681617737, -0.3193945288658142, -0.06552942097187042, -0.20342199504375458, -0.1585671305656433, -0.1550491899251938, -0.2280864268541336, -0.050006672739982605, -0.17499122023582458, -0.13142108917236328, -0.15280941128730774, -0.090384840965271, 0.01104672159999609, -0.09888514131307602, 0.07560187578201294, -0.07798619568347931, -0.10869591683149338, 0.06249702721834183, 0.002461576135829091, -0.023952621966600418, -0.10751795768737793, 0.028159823268651962, -0.12663134932518005, -0.00250555039383471, -0.003948597237467766, -0.19368727505207062, -0.09597276896238327, -0.20372474193572998, -0.03517206013202667, -0.0771268755197525, 0.035817816853523254, 0.043866291642189026, 0.10676568746566772, 0.07792550325393677, 0.10909068584442139, -0.0650431215763092, 0.01979239284992218, -0.0485663115978241, -0.004713047295808792, -0.006646949797868729, 0.03250661492347717, 0.06503796577453613, 0.0025825221091508865, 0.05139237642288208, -0.10604336857795715, 0.021664828062057495, -0.11849462985992432, -0.013475559651851654, 0.06267498433589935, 0.08798138797283173, -0.06466884911060333, 0.006253037601709366, -0.06291626393795013, -0.0653315931558609, 0.10199044644832611, 0.000223778304643929, 0.08128546178340912, -0.09875380992889404, 0.020350098609924316, 0.06408941745758057], [0.04153638333082199, -0.2610185146331787, -0.21503685414791107, -0.12543292343616486, -0.1502842903137207, -0.20759743452072144, -0.10292099416255951, -0.18228542804718018, -0.21142075955867767, -0.08089844882488251, -0.033622391521930695, 0.014529476873576641, -0.04854508861899376, -0.150452122092247, -0.061340853571891785, -0.09704386442899704, -0.023089444264769554, 0.0857769325375557, -0.1469275951385498, 0.0053861066699028015, -0.0681871622800827, -0.024111907929182053, -0.04476809501647949, 0.08220642805099487, -0.00016056039021350443, 0.12652979791164398, -0.07783310115337372, 0.00980611052364111, -0.04476932808756828, -0.13247482478618622, -0.13184964656829834, -0.2009277492761612, 0.08463685214519501, -0.02765330672264099, 0.10617141425609589, 0.016601085662841797, -0.019825443625450134, -0.0665145069360733, -0.10148769617080688, 0.05267989635467529, 0.006911236792802811, -0.01515602320432663, 0.04470674693584442, -0.10597865283489227, -0.027562513947486877, 0.022243112325668335, -0.09951359033584595, -0.0908520370721817, 0.004880357533693314, -0.08942793309688568, 0.027508944272994995, 0.02350582182407379, 0.021489158272743225, -0.09123776853084564, -0.04167400300502777, 0.002192886546254158, 0.1201077252626419, -0.004904557019472122, -0.08937586843967438, 0.0027386415749788284, -0.12283970415592194, 0.06938867270946503, -0.034799814224243164, 0.06280194222927094], [-0.045046571642160416, -0.5686250925064087, -0.6254174113273621, -0.6479707956314087, -0.6536946892738342, -0.5812937617301941, -0.3792468309402466, -0.39191505312919617, -0.36786094307899475, -0.42287713289260864, -0.3618873059749603, -0.28928500413894653, -0.25182342529296875, -0.32324835658073425, -0.282420814037323, -0.17993684113025665, -0.25545257329940796, -0.0887795016169548, -0.14824511110782623, -0.2012208253145218, -0.15140390396118164, -0.09060931950807571, -0.04658016189932823, 0.04593691602349281, -0.03650305047631264, -0.14777487516403198, -0.11484281718730927, -0.030495891347527504, -0.0131712406873703, -0.13504229485988617, -0.12397877871990204, 0.040713872760534286, -0.124028280377388, -0.07669298350811005, -0.05748714506626129, -0.10086537897586823, 0.08635126054286957, 0.11836934089660645, 0.07225403189659119, -0.015615381300449371, -0.04114755988121033, 0.09283886849880219, 0.10948291420936584, 0.11647629737854004, -0.09380871057510376, -0.11128935217857361, 0.06384274363517761, -0.060442522168159485, -0.11524809896945953, -0.01560433954000473, 0.0015651294961571693, -0.0490490198135376, 0.1085272878408432, 0.08879710733890533, -0.10245253145694733, -0.010274238884449005, 0.10701115429401398, -0.07405100762844086, -0.11693067848682404, 0.03351911902427673, -0.02061028778553009, 0.08680891990661621, 0.02110174298286438, 0.06257715821266174], [-0.04621661826968193, -0.20170913636684418, -0.2265932857990265, -0.02293511852622032, -0.021604619920253754, -0.16642391681671143, -0.16048777103424072, -0.15308718383312225, -0.09856321662664413, -0.17408381402492523, -0.08002366125583649, -0.17829082906246185, -0.03984571620821953, 0.05644936487078667, 0.025125963613390923, -0.1297924965620041, -0.10350902378559113, 0.015751775354146957, -0.0072677223943173885, 0.1116514801979065, 0.019824372604489326, 0.0016946198884397745, -0.04502755403518677, 0.11408586800098419, -0.013861777260899544, 0.08263902366161346, -0.010753033682703972, 0.09224207699298859, -0.0714619979262352, -0.05173357203602791, -0.062177661806344986, -0.21641264855861664, 0.1098010241985321, -0.05873557925224304, 0.09186869859695435, -0.08975183963775635, 0.06520889699459076, 0.1093444675207138, 0.07444015145301819, 0.10669365525245667, -0.10651002824306488, 0.05061879754066467, -0.08931700885295868, -0.06430961191654205, -0.05417376756668091, -0.08637909591197968, 0.03318454325199127, -0.11336801946163177, -0.08900667726993561, -0.10519208014011383, 0.07364633679389954, 0.003045501187443733, 0.001447991468012333, -0.12482434511184692, -0.12088415026664734, -0.11630050837993622, -0.02213650941848755, -0.07358694076538086, -0.10016776621341705, -0.026153817772865295, 0.004209477454423904, 0.012763462960720062, -0.12219713628292084, -0.02395246922969818], [0.06877808272838593, -0.1040990874171257, -0.08960406482219696, -0.15311351418495178, -0.13219214975833893, 0.0020710034295916557, -0.05366142839193344, -0.008234815672039986, -0.15327481925487518, -0.06319428235292435, 0.03632010146975517, -0.12968850135803223, 0.02884126454591751, -0.1250435709953308, -0.037220507860183716, 0.10001234710216522, -0.09718620032072067, 0.025932693853974342, 0.13039259612560272, -0.09733641892671585, 0.10931692272424698, 0.06732645630836487, 0.05417020246386528, 0.1002541109919548, 0.09908427298069, 0.08795946836471558, -0.035118721425533295, -0.0628790631890297, -0.032303255051374435, 0.05349563807249069, 0.016863154247403145, -0.06714634597301483, 0.041950687766075134, 0.024003759026527405, -0.09640724956989288, -0.032832592725753784, 0.0803338885307312, -0.08107678592205048, 0.08275310695171356, -0.08009591698646545, 0.10857491195201874, 0.11465112864971161, 0.045324236154556274, -0.06670410931110382, -0.013722725212574005, 0.10085932910442352, -0.005947712808847427, -0.060184553265571594, -0.06109297275543213, -0.07584412395954132, 0.05999577045440674, -0.0029307473450899124, -0.03436914086341858, 0.038231030106544495, -0.0955992341041565, 0.023738116025924683, 0.08369192481040955, -0.10207195580005646, -0.034234240651130676, 0.09463603794574738, 0.06817518174648285, -0.08676519989967346, -0.06847624480724335, -0.0013269195333123207], [-0.05296925827860832, -0.12417014688253403, 0.059584107249975204, -0.10827185213565826, 0.01761290803551674, -0.08355358988046646, -0.026982348412275314, 0.007195500656962395, -0.057712994515895844, -0.11983668059110641, 0.061380185186862946, 0.022807899862527847, -0.09518777579069138, -0.03103523515164852, 0.04238710552453995, -0.04815519228577614, -0.007003198843449354, -0.09953930228948593, 0.13109280169010162, -0.049764931201934814, -0.0030211680568754673, 0.064283587038517, -0.011474036611616611, -0.053223732858896255, -0.0076131271198391914, 0.056897129863500595, -0.061390265822410583, 0.017618000507354736, 0.017876185476779938, 0.04579003155231476, -0.030503394082188606, 0.006822497583925724, 0.033183157444000244, -0.08709537982940674, 0.07695233821868896, -0.06301216781139374, 0.10852448642253876, -0.10059255361557007, -0.10235364735126495, 0.11399385333061218, 0.09567283093929291, -0.10955217480659485, -0.0605238676071167, -0.03456279635429382, -0.08110138773918152, 0.027665480971336365, -0.056149840354919434, 0.09973587095737457, 0.11694283783435822, -0.09524799883365631, 0.05422291159629822, 0.008940227329730988, -0.01043645292520523, 0.1141325980424881, -0.024460315704345703, 0.10899181663990021, 0.06183391809463501, -0.06512980163097382, -0.11311666667461395, 0.07525667548179626, 0.0029116589576005936, -0.07166595757007599, 0.0932035744190216, 0.03373326361179352], [-0.003012794768437743, -0.4448482096195221, -0.35995543003082275, -0.32177016139030457, -0.4156307876110077, -0.2863085865974426, -0.2312682718038559, -0.24432916939258575, -0.2207575887441635, -0.19760407507419586, -0.1677626669406891, -0.11938822269439697, -0.271566241979599, -0.22408893704414368, -0.2087620049715042, -0.1582856923341751, -0.14797405898571014, 0.027763912454247475, -0.02820589952170849, -0.04843403026461601, 0.07896100729703903, -0.03830555081367493, 0.05937330797314644, -0.1342555731534958, 0.04380389675498009, 0.0031735352240502834, 0.0002690227120183408, 0.038080085068941116, -0.1977660059928894, -0.22885657846927643, -0.13597726821899414, -0.18718977272510529, 0.0055147744715213776, -0.023590311408042908, 0.06807075440883636, 0.08581100404262543, -0.0660628229379654, -0.036501139402389526, -0.0659765750169754, 0.10847771167755127, -0.017785534262657166, 0.09487588703632355, 0.06770551204681396, -0.01856684684753418, 0.059621572494506836, -0.03885699808597565, -0.06505101919174194, 0.009069092571735382, 0.08490528166294098, -0.09957312047481537, 0.09802699089050293, -0.04484899342060089, 0.12257213890552521, -0.004011113196611404, 0.06495296955108643, -0.05215981602668762, 0.01727670431137085, -0.02171929180622101, 0.07616168260574341, 0.014200277626514435, -0.0559578537940979, -0.08195491135120392, -0.07807828485965729, 0.12342454493045807], [0.0047811283729970455, -0.34353169798851013, -0.16129010915756226, -0.1386677473783493, -0.2999235987663269, -0.20594970881938934, -0.16435375809669495, -0.281460702419281, -0.10774161666631699, -0.2645445168018341, -0.13371361792087555, -0.0343000702559948, -0.15232911705970764, -0.01393213216215372, -0.02274652011692524, -0.15412870049476624, -0.031854186207056046, 0.021023258566856384, -0.12709276378154755, -0.07293995469808578, -0.05791933089494705, -0.027651114389300346, -0.09621148556470871, 0.02957121841609478, -0.030210129916667938, -0.13468286395072937, -0.09414936602115631, -0.04446455091238022, -0.007659052032977343, -0.2306710034608841, -0.11895469576120377, -0.26825639605522156, 0.03793729841709137, 0.08150686323642731, -0.0401005744934082, -0.10254760086536407, 0.08612354099750519, -0.11629919707775116, 0.02558542788028717, 0.06908601522445679, 0.020836323499679565, 0.09918022155761719, 0.10922740399837494, -0.11780698597431183, -0.06864441931247711, -0.013334192335605621, -0.0016528526321053505, -0.05037201941013336, -0.05737398564815521, -0.025311142206192017, -0.11167849600315094, -0.041126370429992676, 0.08901152014732361, 0.10419929027557373, -0.11642178893089294, -0.026623457670211792, -0.06963850557804108, 0.09109541773796082, -0.10381671786308289, -0.12338334321975708, -0.059694305062294006, 0.08876153826713562, -0.010340489447116852, 0.09178508818149567], [0.06932056695222855, -0.18538281321525574, -0.3062323331832886, -0.23142647743225098, -0.16372570395469666, -0.21259579062461853, -0.2229662537574768, -0.04236399009823799, -0.18045060336589813, -0.005380984395742416, -0.138580784201622, -0.14093641936779022, -0.07679178565740585, 0.060023993253707886, -0.1180846244096756, -0.002990528242662549, 0.04717825725674629, 0.01830022968351841, 0.15697772800922394, 0.057198286056518555, 0.0977562889456749, 0.013035626150667667, 0.029610536992549896, -0.0333295576274395, 0.08653511106967926, -0.03281741961836815, -0.06933511048555374, -0.04560267925262451, -0.05530264228582382, 0.004008639603853226, -0.24581378698349, -0.3486899137496948, 0.11574915051460266, -0.100993812084198, 0.003252582624554634, 0.11427386105060577, -0.002084137871861458, -0.07874298095703125, -0.057168588042259216, 0.0805111676454544, 0.10547947883605957, -0.05357407033443451, 0.11826692521572113, -0.10400478541851044, 0.08606524765491486, -0.044504791498184204, 0.10292606055736542, -0.030079469084739685, -0.10683724284172058, -0.11454556882381439, -0.026647597551345825, 0.0466465950012207, -0.08758620917797089, 0.11465698480606079, -0.04103410243988037, 0.07589784264564514, 0.056705281138420105, 0.10394765436649323, -0.037402793765068054, -0.10895662009716034, 0.07425233721733093, 0.06787590682506561, 0.04160712659358978, -0.0661444365978241], [0.04035050421953201, -0.7379235029220581, -0.7021456360816956, -0.6057796478271484, -0.5288934707641602, -0.6613919138908386, -0.5399336814880371, -0.48178616166114807, -0.5383157730102539, -0.43814319372177124, -0.24987316131591797, -0.4033183455467224, -0.2964920997619629, -0.28504782915115356, -0.275012344121933, -0.17556650936603546, -0.1514330804347992, -0.2503531873226166, -0.18364273011684418, -0.11395961046218872, 0.0019828719086945057, -0.106942318379879, -0.201970174908638, -0.026605956256389618, -0.1500258892774582, -0.10514294356107712, 0.016939012333750725, -0.09913507103919983, 0.00895300880074501, 0.02920105867087841, -0.10358074307441711, -0.17919544875621796, -0.08481387794017792, 0.11519722640514374, 0.12262062728404999, -0.06273658573627472, 0.11570955812931061, 0.12073604762554169, -0.035421743988990784, -0.07321642339229584, -0.008961759507656097, 0.09028655290603638, -0.07328908145427704, 0.020230278372764587, 0.1021149754524231, -0.002253742888569832, -0.11689262092113495, -0.05995208024978638, -0.11944782733917236, -0.09992355108261108, 0.09574751555919647, 0.0705680251121521, -0.007075447589159012, -0.06697924435138702, 0.09678336977958679, 0.118292897939682, 0.11941617727279663, -0.03422266244888306, -0.10097821056842804, -0.05031110346317291, -0.06858925521373749, 0.11427925527095795, -0.08971469104290009, 0.03651793301105499], [0.06759646534919739, -0.4754340946674347, -0.45800912380218506, -0.4478883445262909, -0.38820141553878784, -0.43197867274284363, -0.3180497884750366, -0.26893290877342224, -0.380324125289917, -0.2661551237106323, -0.22011592984199524, -0.11485394835472107, -0.13606660068035126, -0.21456758677959442, -0.15129253268241882, -0.020886985585093498, -0.1931760162115097, -0.20044533908367157, -0.07948964834213257, 0.035349953919649124, -0.16046667098999023, -0.05858365073800087, -0.07996147871017456, -0.061335451900959015, -0.19133464992046356, -0.18534374237060547, 0.005253827199339867, -0.10843884944915771, -0.1760118454694748, -0.0036162715405225754, -0.21015477180480957, -0.2146865576505661, 0.12001447379589081, 0.02507661283016205, -0.10226920247077942, 0.025300264358520508, 0.10537050664424896, 0.0924704521894455, -0.05151650309562683, -0.001888231374323368, 0.08104339241981506, -0.04371576011180878, 0.0540214478969574, -0.07479479908943176, -0.05904495716094971, -0.11890234053134918, 0.02886126935482025, -0.10144799947738647, 0.0719834715127945, 0.02046668529510498, 0.08153612911701202, 0.11035138368606567, -0.06763958930969238, -0.011367268860340118, -0.05873997509479523, -0.07534681260585785, 0.03860154747962952, 0.043020084500312805, 0.12491461634635925, -0.025077715516090393, -0.065572589635849, -0.047918349504470825, -0.058949172496795654, 0.02077224850654602], [0.03443700447678566, -0.6637256145477295, -0.5671696066856384, -0.6138885021209717, -0.5660211443901062, -0.5121590495109558, -0.48054876923561096, -0.45630112290382385, -0.42423588037490845, -0.35496985912323, -0.3494061827659607, -0.35746127367019653, -0.2615620493888855, -0.3409285843372345, -0.2458418309688568, -0.3287146985530853, -0.14975996315479279, -0.10019055008888245, -0.019136609509587288, -0.1799967885017395, -0.01863071322441101, 0.008147258311510086, -0.09605390578508377, -0.037400536239147186, -0.08986912667751312, -0.03285050019621849, -0.07996339350938797, -0.035934265702962875, -0.009671400301158428, -0.10451740771532059, 0.011384854093194008, 0.039595939218997955, 0.12335848808288574, 0.11226841807365417, -0.02994757890701294, -0.10290868580341339, -0.12263195216655731, 0.09449838101863861, -0.08524399995803833, 0.12225034832954407, -0.03287830948829651, -0.03064793348312378, 0.011398352682590485, 0.1217397153377533, 0.11453527212142944, 0.04423217475414276, 0.03422768414020538, -0.001148582436144352, 0.06016828119754791, -0.11697068810462952, -0.0998028963804245, 0.09891417622566223, -0.09185078740119934, -0.008148856461048126, -0.07200993597507477, -0.09465348720550537, -0.07490573823451996, -0.00866197794675827, -0.10208101570606232, -0.01645989716053009, 0.05443428456783295, -0.1128237396478653, -0.12284906208515167, 0.05067121982574463], [0.023560352623462677, -0.7060475945472717, -0.6766397953033447, -0.5964811444282532, -0.5144133567810059, -0.4718678593635559, -0.5622538328170776, -0.4143686592578888, -0.39818623661994934, -0.46041932702064514, -0.4016699492931366, -0.44094622135162354, -0.2201692759990692, -0.3113323152065277, -0.09231353551149368, -0.2456401288509369, -0.09426054358482361, -0.05668177828192711, -0.03355587646365166, -0.1513710618019104, -0.0906803086400032, -0.21920602023601532, 0.032889582216739655, -0.07014975696802139, -0.15805327892303467, -0.09526823461055756, -0.01678575947880745, 0.027099138125777245, 0.010763714089989662, -0.10664226114749908, -0.13433390855789185, 0.011979554779827595, 0.05994327366352081, -0.09879304468631744, -0.06763602793216705, 0.1168912798166275, -0.12033449113368988, 0.0984659343957901, -0.01183386892080307, 0.11581087112426758, 0.09550973773002625, 0.0036648232489824295, 0.08704562485218048, -0.0048772431910037994, 0.12146356701850891, -0.09649604558944702, 0.006687883287668228, -0.10234420001506805, -0.06104269623756409, 0.09243793785572052, -0.07515808939933777, -0.12346644699573517, -0.011636726558208466, -0.057495489716529846, -0.05493466556072235, -0.022035494446754456, 0.07569432258605957, 0.10145466029644012, -0.0516713410615921, 0.09283126890659332, 0.06332170963287354, -0.06160321831703186, 0.009179316461086273, -0.07683636248111725], [0.07041703164577484, -0.5932999849319458, -0.6684988737106323, -0.6246415972709656, -0.5558563470840454, -0.41230300068855286, -0.41028735041618347, -0.3961213231086731, -0.2697938084602356, -0.3212750554084778, -0.16733381152153015, -0.2461470663547516, -0.2773115336894989, -0.20623308420181274, -0.14624185860157013, -0.173054039478302, -0.16270732879638672, -0.17486819624900818, -0.12910178303718567, -0.16894426941871643, -0.14653952419757843, -0.16346712410449982, -0.16764263808727264, 0.014676601625978947, 0.020495273172855377, -0.08748263120651245, -0.1415560096502304, -0.11836384981870651, 0.01661720499396324, -0.0360204242169857, -0.15004000067710876, -0.15597964823246002, 0.017453864216804504, -0.05141778290271759, -0.03529256582260132, -0.0763327032327652, -0.12243880331516266, 0.036759525537490845, -0.12410634756088257, 0.05216111242771149, -0.09303002059459686, 0.11268152296543121, 0.0272691547870636, 0.09021724760532379, -0.045296311378479004, -0.0034166742116212845, -0.1174079030752182, 0.08891817927360535, -0.0648295134305954, 0.10157415270805359, 0.07768791913986206, 0.020801961421966553, -0.07864846289157867, 0.08924949169158936, 0.05190086364746094, -0.01521299034357071, 0.08383993804454803, -0.0223332941532135, 0.06742225587368011, 0.010892115533351898, -0.09088702499866486, -0.045655906200408936, -0.053335607051849365, -0.11790446937084198], [0.016138168051838875, 0.20356065034866333, 0.19791795313358307, 0.09200932830572128, 0.0320071280002594, 0.02643279917538166, 0.17100131511688232, 0.15999244153499603, 0.1124236211180687, 0.12024152278900146, 0.14561541378498077, -0.018620388582348824, -0.00934284832328558, 0.15037225186824799, 0.05982378125190735, 0.1391838937997818, 0.07167603075504303, -0.07691846787929535, -0.027402736246585846, -0.041094712913036346, 0.08337488025426865, 0.11533477902412415, 0.07472622394561768, -0.057578470557928085, -0.05538890138268471, -0.016540877521038055, -0.144643172621727, -0.006180443800985813, 0.030969901010394096, 0.024217866361141205, 0.1306440830230713, -0.04028528556227684, 0.046419307589530945, -0.06954501569271088, -0.017509713768959045, -0.014495022594928741, -0.08583556115627289, 0.013666786253452301, -0.07799787819385529, 0.04361541569232941, -0.041385188698768616, 0.08675214648246765, 0.11298581957817078, -0.12305782735347748, 0.09516231715679169, -0.1167197972536087, 0.023385003209114075, -0.03137241303920746, -0.01808367669582367, -0.03608784079551697, -0.02210092544555664, 0.1037764698266983, 0.04336671531200409, -0.00027255737222731113, 0.10823312401771545, 0.04038025438785553, 0.10527428984642029, 0.07809180021286011, 0.1030961126089096, -0.10246339440345764, 0.0008797799237072468, -0.027405306696891785, -0.08496065437793732, -0.11697429418563843], [0.01976710557937622, -0.008324951864778996, 0.0026453810278326273, 0.06839978694915771, 0.04132018983364105, 0.027744458988308907, -0.05343037098646164, -0.055157773196697235, 0.04106757417321205, -0.006133302114903927, 0.07217772305011749, 0.026309486478567123, 0.060538697987794876, -0.056578245013952255, -0.06172182038426399, 0.035115793347358704, 0.10290943086147308, -0.01652209646999836, 0.058442454785108566, 0.028184467926621437, 0.12454179674386978, 0.012462434358894825, -0.003843775251880288, 0.08588071912527084, 0.09015391021966934, 0.10947555303573608, 0.11576738953590393, -0.07061678916215897, 0.02953067235648632, -0.08484116196632385, -0.1084032729268074, -0.0706358477473259, -0.12140442430973053, -0.033256977796554565, -0.11998000741004944, -0.0776853859424591, -0.01565183699131012, -0.09466014802455902, -0.11641483008861542, 0.03190496563911438, -0.07729540765285492, -0.07036134600639343, 0.006064135581254959, 0.04366022348403931, 0.01572476327419281, -0.08016741275787354, 0.03025589883327484, -0.09420754015445709, 0.06768842041492462, 0.09715864062309265, 0.11100998520851135, -0.0639331191778183, -0.09782202541828156, -0.032461509108543396, 0.08596819639205933, -0.09712943434715271, -0.11079086363315582, -0.036221444606781006, -0.01068628579378128, -0.04162997007369995, -0.06580361723899841, 0.08051145076751709, 0.07194194197654724, -0.02151729166507721], [0.02093609981238842, 0.0015902172308415174, 0.08739691227674484, 0.005962428171187639, -0.005443772301077843, 0.14672298729419708, 0.0857948437333107, 0.1767282634973526, 0.01929238811135292, 0.059183817356824875, 0.11495108902454376, 0.11872535943984985, -0.0496470183134079, 0.0923129990696907, 0.14953014254570007, -0.008883729577064514, 0.01944347843527794, 0.04782355949282646, -0.08832623809576035, -0.02841794863343239, 0.05847040191292763, 0.009925363585352898, 0.03924216702580452, -0.04814383015036583, 0.03007546067237854, 0.012522577308118343, -0.11511879414319992, 0.03672035038471222, -0.10015489906072617, 0.020694395527243614, 0.05444372072815895, -0.025030985474586487, -0.1050490140914917, 0.06646525859832764, 0.049058809876441956, 0.07974466681480408, -0.0328933447599411, -0.05073784291744232, -0.02413347363471985, 0.12286350131034851, 0.10918480157852173, 0.04698111116886139, -0.0977085530757904, 0.012535728514194489, 0.11128033697605133, -0.09455537796020508, 0.07539212703704834, 0.04910650849342346, 0.09383809566497803, -0.053896933794021606, -0.06002156436443329, -0.01496017724275589, -0.10140617191791534, 0.11728623509407043, -0.012002028524875641, -0.05373673141002655, 0.09745040535926819, 0.018017560243606567, -0.016087204217910767, 0.03769326210021973, -0.11764095723628998, -0.11994551122188568, -0.09660522639751434, -0.09061537683010101], [0.010321645066142082, 0.1131669208407402, 0.14600947499275208, 0.08108370751142502, 0.021547019481658936, -0.06799423694610596, 0.13935889303684235, 0.09970255941152573, 0.0412302203476429, -0.039542436599731445, 0.1361519992351532, 0.05013517662882805, 0.07169424742460251, 0.012242324650287628, 0.07219027727842331, 0.12277708947658539, 0.06989499926567078, -0.0017636887496337295, -0.0846245139837265, 0.047342441976070404, 0.06654785573482513, 0.13492362201213837, 0.10550316423177719, 0.08962324261665344, -0.04402213543653488, 0.15072394907474518, 0.07080687582492828, 0.14000514149665833, 0.03833964467048645, 0.08946739137172699, 0.003785208333283663, -0.052272651344537735, 0.006471116095781326, 0.11926405131816864, 0.09676399827003479, -0.047333985567092896, 0.06939299404621124, -0.006003517657518387, 0.03081384301185608, 0.029245227575302124, -0.025075986981391907, -0.10873109102249146, 0.0802457332611084, 0.0004549326840788126, -0.044535353779792786, 0.008980505168437958, -0.09673789143562317, -0.03924530744552612, -0.0395502895116806, -0.08944337069988251, 0.04560774564743042, -0.033617034554481506, 0.09099037945270538, -0.016207724809646606, 0.07599100470542908, -0.018087610602378845, -0.055076926946640015, 0.10376249253749847, 0.022601142525672913, -0.026909247040748596, 0.08752167224884033, 0.03555293381214142, -0.041878312826156616, 0.07577428221702576], [0.020803913474082947, 0.16598668694496155, 0.12097697705030441, 0.13097956776618958, 0.18569964170455933, 0.2193135768175125, 0.06097852811217308, 0.0945577621459961, 0.20576415956020355, 0.17868928611278534, 0.11361280828714371, 0.03397882729768753, -0.004277115222066641, 0.0655708983540535, 0.11751378327608109, 0.12996354699134827, -0.04486272856593132, 0.12141581624746323, 0.010493120178580284, -0.16145814955234528, -0.029239747673273087, -0.16436628997325897, -0.05293300747871399, -0.0762866735458374, 0.011037561111152172, -0.039261236786842346, -0.18277707695960999, -0.12265796214342117, 0.02336101606488228, -0.0227370522916317, -0.010842779651284218, -0.06997133791446686, 0.025343596935272217, 0.09211617708206177, 0.09306600689888, 0.0078071244060993195, 0.07327437400817871, 0.10840021073818207, 0.0709991306066513, 0.1173199862241745, -0.012086145579814911, 0.024786099791526794, 0.0468779057264328, -0.09760241210460663, 0.06273768842220306, -0.09488686919212341, -0.0038083363324403763, -0.004791874438524246, -0.05599319934844971, -0.07021494209766388, -0.004283670336008072, -0.012568153440952301, -0.028779640793800354, -0.0511956512928009, -0.07179215550422668, -0.10721290111541748, -0.04637923836708069, -0.10743571817874908, -0.014290772378444672, -0.03534398972988129, 0.015102274715900421, -0.038187816739082336, 0.10182470083236694, 0.00035752379335463047], [0.016028400510549545, -0.014607205055654049, -0.0137382997199893, 0.11543262749910355, -0.0031683510169386864, 0.1005890816450119, -0.0078749880194664, -0.005484561435878277, 0.05526027828454971, -0.02497497946023941, 0.12780003249645233, 0.13747316598892212, 0.049107685685157776, 0.06789258867502213, 0.04811029136180878, 0.016499975696206093, 0.045067284256219864, 0.129985049366951, 0.030882345512509346, -0.059653524309396744, -0.06001704931259155, -0.08024230599403381, 0.023624271154403687, 0.023063309490680695, 0.08433312177658081, 0.002562953159213066, -0.06799697130918503, -0.08184649050235748, 0.105318084359169, -0.06364208459854126, -0.08411099016666412, 0.01254288014024496, -0.11171221733093262, -0.048599377274513245, 0.10978767275810242, -0.08891722559928894, -0.10850949585437775, -0.1005132794380188, -0.035932108759880066, -0.09825387597084045, -0.010871104896068573, -0.08294306695461273, 0.052892595529556274, -0.09833857417106628, 0.012188263237476349, 0.07048019766807556, 0.0959654152393341, -0.06648372113704681, -0.1211489588022232, -0.07200495898723602, -0.024846360087394714, 0.08764803409576416, 0.04626145958900452, -0.03865261375904083, 0.10244226455688477, 0.05176010727882385, -0.06373672187328339, 0.07855039834976196, -0.09073472023010254, 0.001684204675257206, 0.09192779660224915, -0.0059898532927036285, 0.09030678868293762, 0.023405253887176514], [0.032849233597517014, -0.010733555071055889, 0.11699885129928589, 0.11136114597320557, -0.05050787702202797, 0.09036694467067719, 0.14014606177806854, -0.05392143130302429, 0.04611841216683388, 0.05505910888314247, 0.07216563075780869, 0.015267563052475452, 0.005718650761991739, 0.10008120536804199, 0.06070555001497269, 0.07897429168224335, -0.0018145738868042827, -0.0437735952436924, -0.0012193373404443264, 0.06937619298696518, 0.0665687695145607, 0.11187907308340073, 0.02390953153371811, 0.005258831661194563, 0.11320164799690247, 0.09108991175889969, 0.005507085006684065, 0.11831624805927277, 0.1799309104681015, 0.07674705982208252, 0.045907918363809586, -0.06017054244875908, -0.12356029450893402, 0.12477384507656097, -0.05749736726284027, -0.017128244042396545, -0.017030581831932068, -0.00020828109700232744, -0.06844775378704071, -0.09273305535316467, -0.009876079857349396, -0.08126497268676758, 0.10836297273635864, 0.0369027704000473, 0.08294728398323059, -0.10184136033058167, -0.023302078247070312, -0.05137430131435394, 0.03005775809288025, 0.10878357291221619, -0.046385109424591064, -0.06492820382118225, 0.030699968338012695, 0.08442102372646332, -0.06438536942005157, 0.11599694192409515, -0.037975698709487915, 0.035585179924964905, 0.09736901521682739, 0.0847988873720169, 0.05973462760448456, -0.017281129956245422, 0.0973459929227829, 0.017342403531074524], [0.012777850963175297, 0.19449713826179504, 0.11432681232690811, 0.0382777564227581, 0.16566187143325806, 0.09826463460922241, 0.03503444045782089, 0.18891215324401855, -0.002986597130075097, -0.00443932693451643, -0.0028095117304474115, -0.009197898209095001, -0.012127052992582321, 0.0955277532339096, 0.17552053928375244, 0.02485365979373455, -0.06006991118192673, -0.03708028793334961, 0.0531558021903038, 0.12469790130853653, 0.08163987100124359, 0.045281730592250824, 0.0647667795419693, -0.06429269164800644, 0.1586993932723999, 0.057109832763671875, 0.06391803920269012, 0.07130727171897888, 0.005622763652354479, 0.06807385385036469, 0.0703575611114502, 0.04005869850516319, 0.04880137741565704, -0.10410025715827942, 0.12338091433048248, -0.07583239674568176, -0.09570321440696716, 0.08870869874954224, -0.047332704067230225, -0.013970889151096344, 0.07009072601795197, -0.04308231174945831, -0.09720566868782043, -0.09908360242843628, 0.0832013487815857, 0.11898192763328552, -0.040376320481300354, -0.05475981533527374, 0.003946695476770401, 0.07950583100318909, -0.05185636878013611, -0.02104702591896057, -0.0534818172454834, -0.061500921845436096, 0.08700641989707947, -0.09835433959960938, 0.11784647405147552, -0.05096626281738281, -0.008342109620571136, -0.047470301389694214, 0.09292124211788177, 0.08805626630783081, 0.06764116883277893, 0.12279865145683289], [0.02216985635459423, 0.1178286150097847, 0.25418001413345337, 0.07576853036880493, 0.1894465535879135, 0.08989285677671432, 0.14066646993160248, 0.06010745093226433, 0.042116302996873856, 0.035803064703941345, 0.01162051409482956, 0.025030314922332764, 0.15360648930072784, 0.048573918640613556, 0.19547051191329956, 0.007523008622229099, -0.008606827817857265, 0.049646999686956406, 0.09852808713912964, 0.029367893934249878, 0.016387587413191795, 0.05918016657233238, -0.04136775806546211, 0.1323373168706894, -0.01723736710846424, -0.0753527581691742, -0.0749579668045044, 0.05006127431988716, 0.13359761238098145, 0.04141769930720329, -0.01356175821274519, -0.0722891241312027, -0.0495181679725647, -0.0868958979845047, -0.025200992822647095, 0.09830300509929657, -0.09612464904785156, 0.10892593860626221, 0.053121522068977356, -0.11941008269786835, -0.11202630400657654, -0.015429861843585968, 0.0987236350774765, -0.04757542908191681, -0.08410963416099548, -0.025325432419776917, -0.07524539530277252, -0.0585060715675354, -0.0774795413017273, -0.044693008065223694, -0.07779847085475922, -0.0006286655552685261, 0.048949941992759705, -0.11964869499206543, 0.018506556749343872, -0.1035899966955185, 0.12286968529224396, 0.12385241687297821, -0.07204848527908325, -0.08401449024677277, 0.07561410963535309, 0.09939979016780853, 0.033942028880119324, -0.09037810564041138], [-0.04195323586463928, -0.3653852939605713, -0.21062692999839783, -0.33561399579048157, -0.13821126520633698, -0.2366245985031128, -0.18774214386940002, -0.1625300943851471, -0.19931569695472717, -0.27186715602874756, -0.10554764419794083, -0.2402345985174179, -0.2087908238172531, -0.17961376905441284, -0.03534881770610809, 0.012282994575798512, -0.04013441130518913, -0.12093330174684525, -0.12712307274341583, 0.041165582835674286, -0.08000589162111282, 0.016683315858244896, 0.04909905418753624, -0.1488710194826126, -0.036295805126428604, -0.09733815491199493, -0.17044779658317566, 0.044760704040527344, -0.024288227781653404, -0.043077897280454636, -0.1369912177324295, -0.20053285360336304, 0.02932436764240265, -0.03658972680568695, 0.03892640769481659, 0.06991246342658997, -0.026834189891815186, -0.026365339756011963, -0.10183276236057281, -0.0933341383934021, -0.01509033888578415, -0.010890848934650421, -0.10138221085071564, 0.06413237750530243, 0.0728524923324585, -0.12413936853408813, -0.011210061609745026, 0.06808415055274963, -0.1104658842086792, 0.006881657987833023, -0.011005215346813202, -0.025730788707733154, -0.051776036620140076, 0.013282261788845062, 0.07146105170249939, 0.07614907622337341, -0.07848481833934784, 0.04388962686061859, -0.10681793093681335, 0.0840635746717453, 0.09936408698558807, -0.08575195074081421, 0.07420480251312256, -0.07899859547615051], [0.002530906582251191, 0.01657036319375038, 0.05078120529651642, -0.08234576135873795, -0.11458820104598999, 0.07114238291978836, -0.013429892249405384, -0.026353860273957253, 0.14545564353466034, -0.06109621003270149, 0.03576406091451645, -0.010155313648283482, -0.021445313468575478, 0.004500098992139101, -0.01157166063785553, 0.11968562752008438, 0.02893306501209736, -0.014070971868932247, 0.1654241681098938, 0.05424022674560547, 0.08905062079429626, 0.11765982210636139, 0.049866434186697006, 0.10884441435337067, -0.024576181545853615, 0.09576946496963501, 0.023553255945444107, 0.18230238556861877, 0.08187274634838104, -0.04443744570016861, 0.11159320175647736, 0.04319434612989426, 0.05447305738925934, -0.10629698634147644, -0.11482900381088257, 0.11891829967498779, -0.005790162831544876, -0.026598677039146423, 0.0063633061945438385, 0.00408979132771492, -0.029496625065803528, -0.10873785614967346, 0.006141055375337601, -0.06739959120750427, 0.11487022042274475, -0.006521511822938919, 0.06902967393398285, 0.02176538109779358, 0.058923572301864624, 0.05634784698486328, 0.07627180218696594, -0.0004604312125593424, -0.02870255708694458, -0.11883719265460968, 0.04794888198375702, 0.08954086899757385, -0.028694838285446167, -0.10037165880203247, 0.01514820009469986, -0.01646159589290619, -0.0002721401397138834, -0.058075934648513794, 0.05993543565273285, -0.07986858487129211], [0.017356321215629578, 0.09257874637842178, 0.11076382547616959, 0.003203820437192917, 0.055040109902620316, 0.04889072850346565, -0.009756875224411488, 0.15552514791488647, 0.03569655492901802, 0.16814884543418884, 0.12335515022277832, 0.08991039544343948, -0.05611689016222954, -0.012226364575326443, 0.16902050375938416, -0.015343503095209599, -0.06061668321490288, 0.0901428684592247, 0.049879852682352066, 0.13815003633499146, 0.04550383239984512, 0.050637178122997284, -0.1102803498506546, -0.03183252364397049, 0.017390891909599304, -0.10917560011148453, 0.11898018419742584, 0.07050590962171555, -0.062120381742715836, -0.0899401307106018, -0.005297220777720213, -0.12292398512363434, -0.029140636324882507, 0.09946893155574799, 0.034207746386528015, -0.03136739134788513, 0.05713391304016113, 0.0672602653503418, -0.0665850043296814, 0.03866986930370331, 0.061028853058815, -0.059525951743125916, -0.05010420083999634, -0.11634089052677155, 0.09325164556503296, 0.07217945158481598, 0.06879331171512604, 0.0076232291758060455, -0.08525875210762024, -0.05752609670162201, 0.10626150667667389, -0.058381468057632446, 0.0589827299118042, -0.09005151689052582, -0.06346762180328369, 0.02430713176727295, -0.019665002822875977, -0.04574453830718994, 0.12001751363277435, 0.09417089819908142, -0.12052977085113525, 0.0750153660774231, -0.06341630220413208, -0.07194453477859497], [0.0384884774684906, 0.05999237298965454, 0.13078151643276215, 0.10557533800601959, 0.05075942724943161, 0.04558587819337845, -0.05494700372219086, -4.81396600662265e-05, 0.018497658893465996, 0.10721658915281296, 0.03028736263513565, 0.031454119831323624, -0.056743163615465164, 0.12039823085069656, -0.07042594254016876, 0.07775124907493591, -0.08192178606987, 0.0769881159067154, 0.1339012235403061, -0.09833243489265442, 0.15031351149082184, 0.03190377354621887, -0.08348484337329865, 0.1003093346953392, 0.06786566227674484, 0.05712185427546501, 0.00940532237291336, -0.029914289712905884, 0.07804153859615326, 0.10261934995651245, -0.001638056244701147, 0.016428209841251373, 0.04120674729347229, -0.024178609251976013, 0.033109262585639954, 0.007863081991672516, 0.06311748921871185, -0.004847291857004166, 0.01749521493911743, -0.05846516788005829, 0.059545308351516724, -0.02349802851676941, -0.09572723507881165, 0.11680866777896881, -0.09677062928676605, -0.002026977017521858, 0.046166300773620605, 0.07473157346248627, 0.10903604328632355, -0.07437257468700409, 0.09091638028621674, 0.08989399671554565, -0.01080881804227829, -0.08153961598873138, -0.0217372328042984, 0.017861902713775635, -0.0647878646850586, -0.11064620316028595, 0.12329864501953125, -0.022896498441696167, 0.02202613651752472, -0.003661172464489937, -0.09871555864810944, 0.03150948882102966], [0.010312656871974468, 0.172061488032341, 0.09262282401323318, 0.18329156935214996, 0.1014777272939682, 0.12686806917190552, 0.11892875283956528, 0.16262812912464142, 0.025089576840400696, 0.0394914448261261, 0.15002548694610596, -0.03815372288227081, 0.10064119100570679, -0.006519870832562447, 0.08418245613574982, 0.056269265711307526, 0.15110990405082703, 0.04061399772763252, -0.08007118105888367, 0.11202356964349747, -0.08883443474769592, 0.141004279255867, 0.13768655061721802, 0.14123277366161346, 0.04506758973002434, 0.04188333824276924, 0.05888022854924202, -0.0641508549451828, 0.030377963557839394, -0.05989263951778412, -0.06976247578859329, -0.07602321356534958, -0.07962779700756073, 0.014332257211208344, -0.012241028249263763, 0.002381758764386177, -0.11982016265392303, -0.036985844373703, 0.04939912259578705, 0.0005950038321316242, -0.02117350697517395, 0.002214493229985237, 0.10222309827804565, 0.09246447682380676, -0.1111716628074646, 0.07186633348464966, -0.06852191686630249, -0.06747080385684967, -0.04488031566143036, 0.06236417591571808, 0.11332103610038757, 0.01721028983592987, -0.11489434540271759, 0.09543803334236145, -0.12457619607448578, 0.04395107924938202, 0.12451295554637909, 0.11049801111221313, 0.05627159774303436, -0.11961926519870758, -0.0038301516324281693, -0.1244003027677536, 0.11884923279285431, -0.03687475621700287], [0.012171747162938118, 0.08470994979143143, 0.190730482339859, 0.10516654700040817, 0.16679805517196655, 0.1934128850698471, 0.005534939467906952, 0.12624520063400269, 0.15936358273029327, 0.03673069551587105, 0.051114894449710846, 